tree
version=v4
num_class=1
num_tree_per_iteration=1
label_index=0
max_feature_idx=26
objective=regression
feature_names=summit_altitude_clean north_facing south_facing east_facing west_facing low_angle mid_angle steep topo_denivele topo_difficulty massif snowfall_7d_sum days_since_last_snow recent_snow_7d temp_max_7d_avg temp_min_7d_avg temp_amp_7d_avg freeze_thaw_cycles_7d wind_max_7d meteo_available temp_max_forecast temp_min_forecast wind_forecast snowfall_forecast month day_of_week is_weekend
feature_infos=[800:4810] [0:1] [0:1] [0:1] [0:1] none [0:1] none [0:8800] [1.1000000000000001:5.5] -1:10:30:20:23:1:12:19:8:6:0:14:29:25:27:5:7 [0:167] [0:6] [0:1] [-12.328571428571426:25.857142857142858] [-19.714285714285715:15.185714285714283] [2.8428571428571425:20.300000000000001] [0:7] [5.4000000000000004:44.399999999999999] [0:1] [-12.1:26] [-22.399999999999999:17] [2.8999999999999999:35.299999999999997] [0:62] [1:12] [0:6] [0:1]
tree_sizes=1140 1369 1199 1053 1133 1288 1204 1191 1217 1391 1199 1216 1131 1048 1223 1216 1214 1198 1212 1102 1217 1189 1135 941 1304 1280 1026 1199 1302 942 1217 1099 939 1197 1404 936 962 860 1278 1194 1110 1220 1024 1320 1108 1025 942 1027 1225 1017 1123 1132 1296 944 1411 1314 1143 1203 853 1176 1318 1214 948 1196 1207 967 1035 941 1193 1021 1235 1145 946 945 1198 1197 923 1141 1104 1146 947 940 1033 1147 1098 861 1117 772 863 1146 1297 864 1148 1118 1139 1030 1323 1325 862 1116 1034 1121 1033 1231 1145 1327 866 1231 1034 1324 947 781 1403 1328 952 1123 1243 1121 872 881 865 858 1040 772 1233 860 778 1237 957 1147 955 781 1117 952 1122 1032 948 1146 1399 1293 863 1318 1043 774 958 850 1293 860 1247 1229 1328 1059 866 1149 869 782 776 950 1061 1243 947 782 953 1239 1235 855 942 953 783 953 951 866 854 1295 1032 777 951 862 1234 854 953 1114 850 776 1068 1149 1160 959 953 950 1224 780 865 871 1036 978 872 856 1130 1141 1043 953 1111 1421 859 957 1145 949 1041 1389 1044 1055 957 1136 1312 1341 955 955 859 873 955 952 855 787 1130 950 952 868 771 1308 949 1044 1206 1140 1151 1072 1044 1078 1415 1069 1245 1165 1045 860 1307 868 1150 1236 1160 1120 874 787 866 874 877 1212 1155 1245 851 1043 1037 1231 1069 871 779 1220 1332 954 1301 1245 1161 1250 875 1021 868 865 872 1225 945 1384 1134 959 1146 1233 1207 1238 1246 944 868 1165 953 872 1159 878 1119 1034 1322 869 869 1313 874 1226 955 965 1335 1039 1139 878 879 1069 858 1304 1161 860 870 1247 781 1040 870 871 1030 1330 1211 862 1319 957 874 1311 1315 1316 1040 1114 1045 1217 875 1319 964 1133 1173 878 1325 1043 879 778 1321 1421 1338 884 1161 870 1322 1158 960 877 1132 872 1158 1134 876 1246 1050 1254 1256 1050 1155 1048 1223 874 1131 1165 879 859 1035 1333 1246 1246 1394 1161 951 1052 1145 961 1337 861 1223 779 1254 872 1041 944 878 1052 1086 1437 1047 873 785 788 963 790 878 1327 964 1168 960 860 1162 876 1322 1327 1399 962 878 874 1169 1136 872 1253 878 1314 1131 1233 1133 1232 781 963 1313 1137 1134 1347 1161 949 876 962 784 863 1313 1168 1298 878 969 862 1240 876 1135 1237 1313 1222 857 1225 1054 1224 873 1042 870 1053 1138 1136 876 868 1052 862 1167 875 984 948 1174 1311 896 1132 1054 1170 1145 867 1228 961 959 1228 1335 950 861 1235 1209 1172 1408 1081 766 1251 762 1170 1040 1345 776 1153 1240 789 1259 1343 1341 1227 1164 1174 1329 1160 880 1174 970 1056 1244 1090 1169 1257 1229 792 879 1345 883 1176 874 1142 1054 882 887 880 1319 1054 986 883 867 871 1318 876 1171 1260 1163 898 787 1268 903 952 877 875 1164 1233 1170 1142 1052 871 950 1058 1148 878 1264 787 1261 1262 781 1079 966 1062 787 964 787 1140 969 1176 1231 1171 1234 885 968 1325 1254 1171 1259 974 972 1147 1318 1145 1321 786 776 1053 859 1140 1169 1228 1089 867 875 1243 964 877 1140 1312 1325 1259 788 1264

Tree=0
num_leaves=12
num_cat=1
split_feature=0 10 23 11 6 0 8 17 9 22 9
split_gain=0.553512 0.44144 0.455687 0.3303 0.291619 0.213564 0.258204 0.190728 0.235132 0.157232 0.14097
threshold=3758.5000000000005 0 0.24500000000000002 5.705000000000001 1.0000000180025095e-35 3052.0000000000005 1665.0000000000002 2.5000000000000004 5.1500000000000012 9.6500000000000004 2.2500000000000004
decision_type=8 9 10 10 2 10 10 8 10 10 10
left_child=1 2 3 -1 5 10 -7 8 -2 -4 -3
right_child=7 4 9 -5 -6 6 -8 -9 -10 -11 -12
leaf_value=0.12385071310134828 0.14239337189174731 0.13615116481264916 0.13713671023112839 0.13127440614163674 0.13028037898982339 0.14050453328868237 0.1338800815123368 0.1342571647438284 0.13596966479181308 0.13108811716119267 0.13078633138940221
leaf_weight=31 29 25 22 29 28 38 24 29 28 21 24
leaf_count=31 29 25 22 29 28 38 24 29 28 21 24
internal_value=0.134113 0.132888 0.130596 0.127439 0.134791 0.13599 0.13794 0.137558 0.139238 0.134183 0.133523
internal_weight=328 242 103 60 139 111 62 86 57 43 49
internal_count=328 242 103 60 139 111 62 86 57 43 49
cat_boundaries=0 1
cat_threshold=8389698
is_linear=0
shrinkage=1


Tree=1
num_leaves=14
num_cat=0
split_feature=20 20 22 22 2 22 15 8 25 8 11 21 22
split_gain=0.504773 0.385161 0.572187 0.319595 0.309532 0.26261 0.256421 0.185142 0.191551 0.130144 0.096554 0.0729176 0.0484388
threshold=1.3500000000000003 0.45000000000000007 7.6500000000000012 6.8500000000000005 1.0000000180025095e-35 9.1000000000000014 1.4071428571428573 1715.0000000000002 4.5000000000000009 907.50000000000011 7.3850000000000007 -9.5499999999999989 9.4500000000000011
decision_type=10 10 10 10 2 10 10 8 2 10 10 10 10
left_child=1 2 3 7 6 -4 9 -1 -9 12 -11 -7 -2
right_child=4 -3 5 -5 -6 11 -8 8 -10 10 -12 -13 -14
leaf_value=0.0053727039637473913 0.0015404342440888286 0.0082265596045181157 -0.0064952604265676606 0.0089172034151852129 -0.0079017464071512219 0.0020158867537975311 0.0038455838896334174 -0.0024684709931413334 0.0033365994829822471 -0.0057981222387283081 -0.0016217590086162093 -0.0022025697288059055 -0.0019394638948142529
leaf_weight=26 20 20 27 20 21 20 20 30 27 31 25 21 20
leaf_count=26 20 20 27 20 21 20 20 30 27 31 25 21 20
internal_value=1.39131e-11 0.00166121 0.000893334 0.00324338 -0.002316 -0.0026663 -0.00130478 0.0018762 0.000281299 -0.00237777 -0.00393367 -0.000144786 -0.000199515
internal_weight=328 191 171 103 137 68 116 83 57 96 56 41 40
internal_count=328 191 171 103 137 68 116 83 57 96 56 41 40
is_linear=0
shrinkage=0.05


Tree=2
num_leaves=12
num_cat=1
split_feature=0 10 12 22 25 18 18 14 8 0 16
split_gain=0.469465 0.391929 0.295941 0.24062 0.212971 0.363672 0.168489 0.135026 0.109477 0.095712 0.0877746
threshold=3758.5000000000005 0 2.5000000000000004 7.7500000000000009 2.5000000000000004 10.950000000000001 10.65 -1.5357142857142854 1044.5000000000002 2912.5000000000005 7.2928571428571436
decision_type=8 9 8 10 2 10 8 8 10 10 10
left_child=1 2 10 -4 -3 8 -2 -8 -6 -7 -1
right_child=6 4 3 -5 5 9 7 -9 -10 -11 -12
leaf_value=-0.0026383428996347865 0.0059778737271148144 0.0044408391540249189 -0.0016271541338591352 -0.0082961554786092351 0.005071430086441662 -0.0013542523538624799 -0.0018149291910231115 0.0033915513957088646 0.00063076265555407325 -0.0056938637164421387 0.0018326839631689447
leaf_weight=23 33 30 21 38 23 27 20 33 35 24 21
leaf_count=23 33 30 21 38 23 27 20 33 35 24 21
internal_value=-1.95918e-11 -0.00112765 -0.00328867 -0.00592244 0.000662599 -0.000316495 0.00317317 0.00142684 0.00239172 -0.00339642 -0.000504444
internal_weight=328 242 103 59 139 109 86 53 58 51 44
internal_count=328 242 103 59 139 109 86 53 58 51 44
cat_boundaries=0 1
cat_threshold=8389698
is_linear=0
shrinkage=0.05


Tree=3
num_leaves=10
num_cat=1
split_feature=15 2 10 23 11 17 6 22 20
split_gain=0.435501 0.324752 0.28516 0.440388 0.393401 0.229496 0.208437 0.201329 0.120567
threshold=-12.207142857142856 1.0000000180025095e-35 0 0.52500000000000013 0.94500000000000017 1.0000000180025095e-35 1.0000000180025095e-35 9.2500000000000018 1.7500000000000002
decision_type=8 2 9 8 8 10 2 10 10
left_child=-1 2 3 5 -4 -2 8 -5 -6
right_child=1 -3 4 7 6 -7 -8 -9 -10
leaf_value=0.0063427701145410539 -0.0090971809124485367 -0.0048460393071811849 0.0080604095896705998 0.0045291585847735405 0.0026249839911690435 -0.0025529140858231367 -0.0037884744106913395 -0.0018214584328234197 -0.00078215887304395432
leaf_weight=25 21 38 20 26 74 37 23 24 40
leaf_count=25 21 38 20 26 74 37 23 24 40
internal_value=1.34871e-12 -0.000523331 9.65292e-05 -0.001792 0.00141938 -0.00492239 0.000553486 0.00148086 0.0014295
internal_weight=328 303 265 108 157 58 137 50 114
internal_count=328 303 265 108 157 58 137 50 114
cat_boundaries=0 1
cat_threshold=8389698
is_linear=0
shrinkage=0.05


Tree=4
num_leaves=11
num_cat=1
split_feature=15 10 14 11 8 9 22 6 20 14
split_gain=0.39304 0.291423 0.407473 0.387217 0.351584 0.327404 0.272524 0.238658 0.178692 0.167749
threshold=-12.207142857142856 0 16.164285714285718 7.2100000000000017 2172.5000000000005 3.7000000000000002 7.9500000000000011 1.0000000180025095e-35 5.4000000000000012 -1.5357142857142854
decision_type=8 9 8 10 8 10 10 2 10 10
left_child=-1 3 4 8 5 7 -6 -3 -2 -5
right_child=1 2 -4 9 6 -7 -8 -9 -10 -11
leaf_value=0.0060256316512823111 -0.0034448151444566658 0.0023044741731137039 0.0071391148873689502 -0.0030654168098967951 0.00026554170875780044 -0.0054365370618669612 0.0075419730887832971 -0.0033970026423801379 -0.0095881922356784357 0.002205155006635727
leaf_weight=25 29 50 22 26 31 38 22 29 20 36
leaf_count=25 29 50 22 26 31 38 22 29 20 36
internal_value=8.18102e-12 -0.000497164 0.000699693 -0.00241305 -9.24857e-05 -0.00162289 0.00328595 0.000211527 -0.00595232 -5.08479e-06
internal_weight=328 303 192 111 170 117 53 79 49 62
internal_count=328 303 192 111 170 117 53 79 49 62
cat_boundaries=0 1
cat_threshold=8389696
is_linear=0
shrinkage=0.05


Tree=5
num_leaves=13
num_cat=0
split_feature=20 20 15 2 15 16 20 12 20 21 9 25
split_gain=0.375879 0.354824 0.29608 0.245613 0.236265 0.208397 0.170236 0.138558 0.0994527 0.0957705 0.195817 0.0243142
threshold=1.3500000000000003 0.45000000000000007 -12.207142857142856 1.0000000180025095e-35 1.4071428571428573 7.5714285714285721 -1.8499999999999999 2.5000000000000004 -2.3499999999999992 -3.1499999999999999 2.2500000000000004 3.5000000000000004
decision_type=10 10 8 2 10 8 8 8 10 10 10 2
left_child=1 2 -1 4 9 7 -7 8 -4 10 -2 -8
right_child=3 -3 5 -5 -6 6 11 -9 -10 -11 -12 -13
leaf_value=0.0057243500314652918 0.002143960981629789 0.0077349927724571907 0.0011316856529031481 -0.0069742526326860704 0.0038460416905581954 0.0056638325963701518 -0.00098993264308029952 -0.0052275598557157956 -0.0029973627328872682 -0.004212607006941523 -0.0035409530695302022 0.0013886224123693649
leaf_weight=25 28 20 35 21 20 21 22 22 25 35 33 21
leaf_count=25 28 20 35 21 20 21 22 22 25 35 33 21
internal_value=-1.38776e-11 0.00143351 0.000696494 -0.00199854 -0.00109777 -0.000164441 0.0019738 -0.00183331 -0.000588751 -0.00212773 -0.000931484 0.000171687
internal_weight=328 191 171 137 116 146 64 82 60 96 61 43
internal_count=328 191 171 137 116 146 64 82 60 96 61 43
is_linear=0
shrinkage=0.05


Tree=6
num_leaves=12
num_cat=1
split_feature=0 10 22 11 25 25 18 20 11 17 21
split_gain=0.345999 0.30173 0.252227 0.243845 0.267457 0.187887 0.287582 0.266273 0.211179 0.158628 0.239487
threshold=3758.5000000000005 0 7.6500000000000012 12.320000000000002 3.5000000000000004 2.5000000000000004 10.950000000000001 3.5500000000000003 8.7150000000000016 2.5000000000000004 -10.35
decision_type=8 9 10 10 2 2 10 10 10 8 10
left_child=1 2 -1 4 -4 -3 8 -8 -7 10 -2
right_child=9 5 3 -5 -6 6 7 -9 -10 -11 -12
leaf_value=0.00046064686241813679 0.0016863180856619563 0.0041475269012153154 -0.0029205666766280221 -0.00088255790248513227 -0.010647154878824949 0.0047134089904526874 -0.0063341261053990044 0.00092652815434595814 -0.0013788995780050755 -0.00028643721136553533 0.0083436969159678982
leaf_weight=33 35 30 21 25 24 33 28 23 25 29 22
leaf_count=33 35 30 21 25 24 33 28 23 25 29 22
internal_value=-4.61402e-12 -0.000968082 -0.00286483 -0.00484182 -0.00704141 0.000600338 -0.000320875 -0.00305971 0.00208741 0.00272414 0.00425583
internal_weight=328 242 103 70 45 139 109 51 58 86 57
internal_count=328 242 103 70 45 139 109 51 58 86 57
cat_boundaries=0 1
cat_threshold=8389698
is_linear=0
shrinkage=0.05


Tree=7
num_leaves=12
num_cat=0
split_feature=20 20 15 1 0 21 23 12 18 8 8
split_gain=0.327431 0.31798 0.263547 0.23512 0.320231 0.21054 0.194469 0.241422 0.429172 0.204156 0.099755
threshold=1.3500000000000003 0.45000000000000007 -12.207142857142856 1.0000000180025095e-35 3115.0000000000005 -3.1499999999999999 2.0300000000000007 3.5000000000000004 10.050000000000002 1715.0000000000002 1044.5000000000002
decision_type=10 10 8 2 10 10 8 8 10 8 10
left_child=1 2 -1 5 -5 10 7 8 -4 -8 -2
right_child=3 -3 6 4 -6 -7 9 -9 -10 -11 -12
leaf_value=0.0053838307354599248 0.0012947290736649718 0.0073032918595708901 0.0058988270070403819 -0.0022504087564918923 0.0057229996216483416 -0.0062764519433441916 0.0061510618170723327 -0.006495584975928068 -0.0028461564252985285 -6.2351926970176209e-05 -0.0034240352300306167
leaf_weight=25 21 20 20 34 20 38 20 20 47 39 24
leaf_count=25 21 20 20 34 20 38 20 20 47 39 24
internal_value=-2.65484e-11 0.00133794 0.000640238 -0.0018653 0.000702705 -0.00353606 -0.000172021 -0.00167476 -0.000235714 0.00204389 -0.00122195
internal_weight=328 191 171 137 54 83 146 87 67 59 45
internal_count=328 191 171 137 54 83 146 87 67 59 45
is_linear=0
shrinkage=0.05


Tree=8
num_leaves=12
num_cat=1
split_feature=10 21 21 8 23 20 22 11 11 20 9
split_gain=0.298576 0.378903 0.376091 0.241549 0.293443 0.165844 0.153917 0.149448 0.140939 0.112592 0.102364
threshold=0 -5.3499999999999988 3.7000000000000006 2625.0000000000005 1.0000000180025095e-35 -1.8499999999999999 7.9500000000000011 4.1300000000000017 11.655000000000001 -1.4999999999999998 3.1500000000000008
decision_type=9 8 8 8 10 10 10 10 10 10 10
left_child=1 9 3 4 7 -6 -5 -2 -9 -1 -3
right_child=2 10 -4 6 5 -7 -8 8 -10 -11 -12
leaf_value=0.0027020230392614999 -0.006191603336483241 -0.0071211036024314738 0.0070269938286704322 0.0010406001781423887 0.004671674514670046 -0.00086456353310495617 0.0068277536286041138 0.00095281754221235011 -0.0035342951704348835 -0.001629879982598747 -0.002599895532642092
leaf_weight=30 20 31 24 27 31 24 20 35 35 30 21
leaf_count=30 20 31 24 27 31 24 20 35 35 30 21
internal_value=1.38776e-11 -0.00199334 0.00107605 0.000388229 -0.000621458 0.00225586 0.00350322 -0.00237982 -0.00129074 0.000536072 -0.00529523
internal_weight=328 112 216 192 145 55 47 90 70 60 52
internal_count=328 112 216 192 145 55 47 90 70 60 52
cat_boundaries=0 1
cat_threshold=8389696
is_linear=0
shrinkage=0.05


Tree=9
num_leaves=14
num_cat=1
split_feature=0 10 22 16 16 1 25 22 8 17 0 11 0
split_gain=0.279087 0.284997 0.466415 0.229283 0.275676 0.213268 0.36991 0.270775 0.196422 0.129508 0.113978 0.0713642 0.048994
threshold=3930.0000000000005 0 9.4500000000000011 7.7214285714285724 8.6214285714285737 1.0000000180025095e-35 4.5000000000000009 8.4500000000000011 1190.0000000000002 2.5000000000000004 3170.5000000000005 11.865000000000002 2724.5000000000005
decision_type=10 9 8 10 10 2 2 10 10 10 10 10 10
left_child=1 2 3 11 -5 6 10 -8 -7 -10 12 -1 -3
right_child=-2 5 -4 4 -6 8 7 -9 9 -11 -12 -13 -14
leaf_value=-0.0047752845275681466 0.0043607078944191786 -0.0056474582664668566 0.0083352026928748407 0.0068736295495182278 -0.0011528469257704591 -0.0027933468235035739 0.0044111222198063675 -0.0033478742060453997 0.0053016767061005035 -2.4527505040168764e-05 -0.0080830746740102773 -0.00064853092824870894 -0.002263718373749567
leaf_weight=20 33 20 21 20 23 30 22 23 21 25 25 22 23
leaf_count=20 33 20 21 20 23 30 22 23 21 25 25 22 23
internal_value=1.10027e-11 -0.000487808 0.00151916 1.39264e-05 0.0025804 -0.00160868 -0.00307122 0.000445413 0.000354232 0.002407 -0.00539841 -0.00261365 -0.00383755
internal_weight=328 295 106 85 43 189 113 45 76 46 68 42 43
internal_count=328 295 106 85 43 189 113 45 76 46 68 42 43
cat_boundaries=0 1
cat_threshold=1073746178
is_linear=0
shrinkage=0.05


Tree=10
num_leaves=12
num_cat=0
split_feature=15 20 20 1 17 22 14 8 0 15 20
split_gain=0.27132 0.154806 0.362559 0.207913 0.274658 0.192755 0.258237 0.209174 0.180077 0.148257 0.135198
threshold=-12.207142857142856 1.3500000000000003 0.45000000000000007 1.0000000180025095e-35 3.5000000000000004 7.6500000000000012 -1.3071428571428567 1715.0000000000002 3170.5000000000005 -4.9571428571428564 -3.0499999999999994
decision_type=8 10 10 2 10 10 10 8 10 10 10
left_child=-1 2 5 8 -5 7 -7 -2 9 -3 -9
right_child=1 3 -4 4 -6 6 -8 10 -10 -11 -12
leaf_value=0.0050064012836664919 0.0051548124551773072 0.0017366172923218637 0.0069270961289294069 0.0054071142966859043 -0.0019771715708296086 -0.0051087917915234966 0.0013598949027558169 -0.0022034699511196878 -0.0064923218784055537 -0.0036066872232100541 0.0027716800337657336
leaf_weight=25 25 21 20 20 34 36 27 36 28 34 22
leaf_count=25 25 21 20 20 34 36 27 36 28 34 22
internal_value=1.19255e-11 -0.000413069 0.000613644 -0.00165712 0.000757749 -0.000251212 -0.0023365 0.00133159 -0.00322823 -0.00156652 -0.000316344
internal_weight=328 303 166 137 54 146 63 83 83 55 58
internal_count=328 303 166 137 54 146 63 83 83 55 58
is_linear=0
shrinkage=0.05


Tree=11
num_leaves=12
num_cat=1
split_feature=0 10 23 12 25 18 20 16 9 12 8
split_gain=0.248821 0.236237 0.337511 0.214263 0.163223 0.211838 0.243605 0.157461 0.146461 0.118132 0.0864959
threshold=3758.5000000000005 0 0.24500000000000002 3.5000000000000004 2.5000000000000004 10.950000000000001 3.5500000000000003 5.9857142857142867 4.1500000000000012 1.0000000180025095e-35 1044.5000000000002
decision_type=8 9 10 8 2 10 10 10 10 10 10
left_child=1 2 3 -1 -3 10 -7 -2 -9 -4 -6
right_child=7 4 9 -5 5 6 -8 8 -10 -11 -12
leaf_value=-0.0022762423110825403 -0.00015196910732098528 0.003869335871810715 0.0033201573250283092 -0.0082553851450311733 0.0041533893298195757 -0.0057780475788084531 0.0011666868691859037 0.0074609235487878324 0.0018991372066325153 -0.0019226824526082386 0.000206237296972956
leaf_weight=31 37 30 21 29 23 28 23 20 29 22 35
leaf_count=31 37 30 21 29 23 28 23 20 29 22 35
internal_value=1.19965e-11 -0.000820953 -0.0025004 -0.00516616 0.000562918 -0.000295461 -0.00264611 0.00231012 0.00416925 0.000637774 0.00177149
internal_weight=328 242 103 60 139 109 51 86 49 43 58
internal_count=328 242 103 60 139 109 51 86 49 43 58
cat_boundaries=0 1
cat_threshold=8389698
is_linear=0
shrinkage=0.05


Tree=12
num_leaves=11
num_cat=1
split_feature=2 16 10 23 16 11 16 25 22 16
split_gain=0.231191 0.276108 0.252622 0.395265 0.274426 0.392525 0.252466 0.187358 0.156095 0.0840771
threshold=1.0000000180025095e-35 5.8642857142857157 0 0.24500000000000002 7.2928571428571436 8.7150000000000016 8.1785714285714288 4.5000000000000009 9.2500000000000018 7.321428571428573
decision_type=2 8 9 8 8 10 8 2 10 10
left_child=1 -1 3 7 -4 6 -6 -3 -5 -2
right_child=9 2 4 8 5 -7 -8 -9 -10 -11
leaf_value=-0.0038841168629005552 -0.0012695876508951188 -0.0013378479251904148 0.0065488023246871307 0.0045455458364248727 0.0072434936029215653 -0.0042304324321448808 0.0012669677860034046 -0.0074282873604122716 -0.00068832993108247013 -0.0058542650751769549
leaf_weight=32 20 28 32 29 24 25 67 23 28 20
leaf_count=32 20 28 32 29 24 25 67 23 28 20
internal_value=-7.39131e-12 0.000494712 0.00104207 -0.000811549 0.0022945 0.00131871 0.00284319 -0.00408452 0.00197452 -0.00356193
internal_weight=328 288 256 108 148 116 91 51 57 40
internal_count=328 288 256 108 148 116 91 51 57 40
cat_boundaries=0 1
cat_threshold=8389698
is_linear=0
shrinkage=0.05


Tree=13
num_leaves=10
num_cat=1
split_feature=15 10 8 1 18 20 15 20 15
split_gain=0.220803 0.17407 0.328571 0.333207 0.180678 0.266135 0.150028 0.231856 0.124702
threshold=-12.392857142857142 0 2172.5000000000005 1.0000000180025095e-35 25.650000000000002 8.8500000000000032 -10.22142857142857 -1.2499999999999998 -8.8071428571428552
decision_type=8 9 8 2 8 10 10 10 10
left_child=-1 2 3 -2 5 6 -3 -8 -4
right_child=1 4 8 -5 -6 -7 7 -9 -10
leaf_value=0.004838208155706525 -0.0040254757273942236 -0.004352534498120177 0.0020040987175889316 0.0026405153091292126 0.0027435099919481828 -0.0071584687169109068 0.003000559644877083 -0.0018312760919798167 0.0075207382174474861
leaf_weight=22 38 29 20 37 24 21 36 80 21
leaf_count=22 38 29 20 37 24 21 36 80 21
internal_value=3.97516e-12 -0.000347845 0.00113292 -0.00073692 -0.00124595 -0.00189779 -0.0011359 -0.000331741 0.00482969
internal_weight=328 306 116 75 190 166 145 116 41
internal_count=328 306 116 75 190 166 145 116 41
cat_boundaries=0 1
cat_threshold=1075319040
is_linear=0
shrinkage=0.05


Tree=14
num_leaves=12
num_cat=1
split_feature=0 10 22 1 21 0 17 23 14 14 0
split_gain=0.214885 0.217159 0.422604 0.177341 0.25524 0.410552 0.185706 0.173046 0.405648 0.066417 0.0571095
threshold=3930.0000000000005 0 9.4500000000000011 1.0000000180025095e-35 -7.6499999999999995 3079.5000000000005 4.5000000000000009 0.31500000000000006 -0.51428571428571423 -0.89285714285714268 2708.5000000000005
decision_type=10 9 8 2 8 10 8 10 10 10 8
left_child=1 2 7 4 -3 10 9 8 -1 -5 -6
right_child=-2 3 -4 6 5 -7 -8 -9 -10 -11 -12
leaf_value=-0.0054023450822569437 0.0038264015985822139 0.00081064990588596898 0.0078005855304322073 0.00060829299502074719 -0.0042810668902737757 -0.010506031895056368 -0.0022882539938603131 0.0036974377688073386 0.0026229151104006075 0.004634322022043523 -0.0010164848956707362
leaf_weight=32 33 35 21 20 21 20 35 22 31 21 37
leaf_count=32 33 35 21 20 21 20 35 22 31 21 37
internal_value=3.48714e-12 -0.000428038 0.00132406 -0.00140634 -0.00273682 -0.00432863 0.000386812 -0.000120248 -0.00145341 0.00267041 -0.00219849
internal_weight=328 295 106 189 113 78 76 85 63 41 58
internal_count=328 295 106 189 113 78 76 85 63 41 58
cat_boundaries=0 1
cat_threshold=1073746178
is_linear=0
shrinkage=0.05


Tree=15
num_leaves=12
num_cat=1
split_feature=0 10 8 23 20 20 8 11 16 16 14
split_gain=0.193934 0.213161 0.314443 0.497185 0.132585 0.160433 0.151808 0.123936 0.100605 0.168895 0.0864313
threshold=3930.0000000000005 0 2625.0000000000005 0.31500000000000006 8.4500000000000011 18.400000000000002 1915.0000000000002 6.0550000000000006 9.1357142857142879 7.0357142857142874 -1.5357142857142854
decision_type=10 9 8 8 8 8 8 10 10 10 10
left_child=1 2 3 7 6 -6 8 -1 9 -3 -9
right_child=-2 4 -4 -5 5 -7 -8 10 -10 -11 -12
leaf_value=-0.00580809996241615 0.0036350816121381345 -0.0023506795815394625 0.0057781681191609729 0.0050475235712984885 -0.0072780857933685194 -0.0010905956849455833 -0.0036063492085252492 -0.0031624450037876766 -0.0026974672028286894 0.0028603399482866128 0.0012880808115005495
leaf_weight=21 33 23 29 31 20 22 35 24 22 48 20
leaf_count=21 33 23 29 31 20 22 35 24 22 48 20
internal_value=5.30613e-12 -0.000406636 0.00112543 -0.000162853 -0.0015105 -0.00403702 -0.000799499 -0.0026478 0.000256843 0.00117226 -0.00113948
internal_weight=328 295 125 96 170 42 128 65 93 71 44
internal_count=328 295 125 96 170 42 128 65 93 71 44
cat_boundaries=0 1
cat_threshold=1074794754
is_linear=0
shrinkage=0.05


Tree=16
num_leaves=12
num_cat=1
split_feature=10 21 11 20 8 9 18 18 14 20 8
split_gain=0.18418 0.283058 0.282658 0.181035 0.276868 0.25327 0.286415 0.219967 0.156525 0.135353 0.0557558
threshold=0 3.7000000000000006 7.2100000000000017 1.3500000000000003 907.50000000000011 4.1500000000000012 10.050000000000002 9.4500000000000011 -1.5357142857142854 6.5500000000000007 1345.0000000000002
decision_type=9 8 10 10 10 10 10 10 10 8 10
left_child=2 3 9 5 -5 6 -2 -7 -4 -1 -6
right_child=1 -3 8 4 10 7 -8 -9 -10 -11 -12
leaf_value=-0.0018714472729091842 0.0064796474374209838 0.0060037438932340594 -0.0023679343759323711 0.0019598062724980993 -0.0056918051391839988 0.0021462605423515752 0.00012762937428695815 -0.0050079528454013847 0.0026682165037426684 -0.0071283089369535459 -0.0021970703782114602
leaf_weight=24 36 24 27 32 25 21 35 22 36 25 21
leaf_count=24 36 24 27 32 25 21 35 22 36 25 21
internal_value=1.17125e-12 0.000845137 -0.00156558 0.000244328 -0.00161179 0.00151431 0.00334837 -0.00151403 0.000509866 -0.00455352 -0.00409638
internal_weight=328 216 112 192 78 114 71 43 63 49 46
internal_count=328 216 112 192 78 114 71 43 63 49 46
cat_boundaries=0 1
cat_threshold=8389696
is_linear=0
shrinkage=0.05


Tree=17
num_leaves=12
num_cat=0
split_feature=0 1 24 25 0 15 0 18 14 14 16
split_gain=0.172252 0.143044 0.388619 0.285834 0.303084 0.281274 0.357546 0.257586 0.229745 0.206978 0.0795709
threshold=3930.0000000000005 1.0000000180025095e-35 5.5000000000000009 4.5000000000000009 3300.0000000000005 -6.7357142857142849 3104.0000000000005 10.050000000000002 -0.89285714285714268 -1.3785714285714283 8.4785714285714295
decision_type=10 2 2 2 10 10 10 8 8 8 10
left_child=1 5 3 4 -3 7 10 -1 -5 -9 -7
right_child=-2 2 -4 8 -6 6 -8 9 -10 -11 -12
leaf_value=0.0044184622130003471 0.0034258548748877017 -0.0010744414913157621 0.0067645244826765169 -0.0074364031502045696 0.0061794392963444508 0.00080108860168944711 -0.0093301043868996205 -0.0048093600124120717 -0.00018038231646642089 0.0010485204665823594 -0.003058050698874628
leaf_weight=29 33 36 23 20 24 22 20 25 24 38 34
leaf_count=29 33 36 23 20 24 22 20 25 24 38 34
internal_value=1.25998e-11 -0.000383231 0.000883098 -0.000417602 0.00182711 -0.00134052 -0.00359147 0.000518969 -0.00347857 -0.00127604 -0.00154196
internal_weight=328 295 127 104 60 168 76 92 44 63 56
internal_count=328 295 127 104 60 168 76 92 44 63 56
is_linear=0
shrinkage=0.05


Tree=18
num_leaves=12
num_cat=1
split_feature=10 21 21 20 8 9 18 18 14 9 8
split_gain=0.164554 0.249665 0.226279 0.153475 0.247997 0.234689 0.237556 0.194559 0.110185 0.089408 0.0496152
threshold=0 3.7000000000000006 -5.3499999999999988 1.3500000000000003 907.50000000000011 4.1500000000000012 10.050000000000002 9.4500000000000011 -1.5357142857142854 3.1500000000000008 1345.0000000000002
decision_type=9 8 8 10 10 10 10 10 10 10 10
left_child=2 3 8 5 -5 6 -2 -7 -1 -4 -6
right_child=1 -3 9 4 10 7 -8 -9 -10 -11 -12
leaf_value=-0.0018103223626634907 0.0060213612657712984 0.005643846385646612 -0.0057324736409129634 0.0019060737904510461 -0.0053306706696748737 0.0019314186026652654 0.00023644699582031799 -0.0047969409772618257 0.0024845671665389094 -0.0015070594836115129 -0.0020339923213344136
leaf_weight=28 36 24 31 32 25 21 35 22 32 21 21
leaf_count=28 36 24 31 32 25 21 35 22 32 21 21
internal_value=-6.45519e-13 0.00079884 -0.00147982 0.00023482 -0.00147418 0.00140414 0.00316964 -0.001511 0.000480285 -0.00402606 -0.00382567
internal_weight=328 216 112 192 78 114 71 43 60 52 46
internal_count=328 216 112 192 78 114 71 43 60 52 46
cat_boundaries=0 1
cat_threshold=8389696
is_linear=0
shrinkage=0.05


Tree=19
num_leaves=11
num_cat=0
split_feature=25 17 22 17 20 20 9 16 15 9
split_gain=0.148733 0.521146 0.352794 0.332635 0.194881 0.166377 0.223084 0.19184 0.101661 0.156602
threshold=2.5000000000000004 3.5000000000000004 7.6500000000000012 1.5000000000000002 0.45000000000000007 1.5500000000000003 5.1500000000000012 6.1785714285714297 -6.6999999999999984 3.1500000000000008
decision_type=2 8 10 10 10 10 8 10 10 8
left_child=1 4 5 -4 -1 6 7 -2 -5 -10
right_child=2 -3 3 8 -6 -7 -8 -9 9 -11
leaf_value=0.0022404912110094146 0.00085839161738043748 -0.0025517498898143705 -0.0066708583110833873 0.0011410848388599384 0.0088229097582040016 -0.0018581817547480266 -0.00057203009621136717 0.0070478155067370792 0.00044258254181061478 -0.0047997865055141786
leaf_weight=23 21 37 34 37 22 30 36 31 28 29
leaf_count=23 21 37 34 37 22 30 36 31 28 29
internal_value=-1.7835e-11 0.00184415 -0.000614718 -0.00243274 0.00545856 0.00135737 0.00245358 0.00454824 -0.000899802 -0.00222459
internal_weight=328 82 246 128 45 118 88 52 94 57
internal_count=328 82 246 128 45 118 88 52 94 57
is_linear=0
shrinkage=0.05


Tree=20
num_leaves=12
num_cat=1
split_feature=0 10 22 25 22 1 25 22 25 0 0
split_gain=0.144877 0.144109 0.340125 0.157013 0.191759 0.141394 0.306372 0.169051 0.137867 0.170907 0.112358
threshold=3930.0000000000005 0 9.4500000000000011 3.5000000000000004 7.6500000000000012 1.0000000180025095e-35 4.5000000000000009 8.4500000000000011 4.5000000000000009 3104.0000000000005 3069.0000000000005
decision_type=10 9 8 2 10 2 2 10 2 10 8
left_child=1 2 3 -1 -5 6 10 -8 9 -7 -3
right_child=-2 5 -4 4 -6 8 7 -9 -10 -11 -12
leaf_value=0.0029194485672094203 0.003141855455363508 -0.0024160630809252756 0.006875778397633917 0.00038933500763960183 -0.0056592735197045843 -0.00049466319883672096 0.0040032737973061481 -0.0021274227648973468 -0.0021784565318375827 0.0056532338261604314 -0.0064809364869314089
leaf_weight=27 33 34 21 38 20 26 22 23 30 20 34
leaf_count=27 33 34 21 38 20 26 22 23 30 20 34
internal_value=-1.13576e-12 -0.000351462 0.00107608 -0.000230184 -0.00169639 -0.00114828 -0.00233059 0.000869807 0.000458549 0.00217834 -0.0044485
internal_weight=328 295 106 85 58 189 113 45 76 46 68
internal_count=328 295 106 85 58 189 113 45 76 46 68
cat_boundaries=0 1
cat_threshold=1073746178
is_linear=0
shrinkage=0.05


Tree=21
num_leaves=12
num_cat=0
split_feature=25 17 22 17 20 20 16 21 21 22 17
split_gain=0.133282 0.452515 0.300875 0.302655 0.173101 0.146243 0.160008 0.248953 0.12387 0.12856 0.114005
threshold=2.5000000000000004 3.5000000000000004 7.6500000000000012 1.5000000000000002 1.0000000180025095e-35 1.5500000000000003 6.1785714285714297 -12.949999999999998 -3.1499999999999999 8.8000000000000025 5.5000000000000009
decision_type=2 8 10 10 10 10 8 10 10 10 10
left_child=1 4 5 -4 -1 6 -2 -8 9 -5 -11
right_child=2 -3 3 8 -6 -7 7 -9 -10 10 -12
leaf_value=0.0017985578282691895 -0.0012146033773509167 -0.0023504959595565863 -0.0063034660675946406 -0.003279439429752529 0.008014559411094524 -0.0017754242910693091 0.0004542049129668158 0.006691100413445384 -0.0042899399995803833 0.004080471704187601 -0.00056557283706722724
leaf_weight=21 24 37 34 20 24 30 32 32 20 23 31
leaf_count=21 24 37 34 20 24 30 32 32 20 23 31
internal_value=2.06566e-11 0.00174574 -0.000581914 -0.00226084 0.00511376 0.00123929 0.00226704 0.00357265 -0.000798612 0.000144991 0.0014133
internal_weight=328 82 246 128 45 118 88 64 94 74 54
internal_count=328 82 246 128 45 118 88 64 94 74 54
is_linear=0
shrinkage=0.05


Tree=22
num_leaves=11
num_cat=1
split_feature=15 10 21 11 14 8 9 20 22 18
split_gain=0.132996 0.109351 0.236779 0.209475 0.178543 0.170503 0.258752 0.187967 0.183902 0.118916
threshold=-12.392857142857142 0 3.7000000000000006 7.2100000000000017 -1.5357142857142854 2172.5000000000005 4.1500000000000012 -1.2499999999999998 7.9500000000000011 12.350000000000003
decision_type=8 9 8 10 10 8 10 10 10 8
left_child=-1 3 5 9 -5 6 7 -3 -7 -2
right_child=1 2 -4 4 -6 8 -8 -9 -10 -11
leaf_value=0.0037549292065457186 -0.0068662954982192746 0.0040874650871211829 0.0051257559680379927 -0.0028050845596366207 0.0026324131176806986 -0.00030300638848735446 -0.0054334959389442314 -0.0012295303743003923 0.0056743490276858211 -0.0018889220880477558
leaf_weight=22 21 22 24 26 36 31 28 68 22 28
leaf_count=22 21 22 24 26 36 31 28 68 22 28
internal_value=-1.13576e-11 -0.000269962 0.000451897 -0.00144833 0.000352172 -0.000177656 -0.00123578 7.01796e-05 0.00217816 -0.00402208
internal_weight=328 306 195 111 62 171 118 90 53 49
internal_count=328 306 195 111 62 171 118 90 53 49
cat_boundaries=0 1
cat_threshold=8389696
is_linear=0
shrinkage=0.05


Tree=23
num_leaves=9
num_cat=0
split_feature=15 20 20 23 8 16 16 21
split_gain=0.121245 0.100269 0.243653 0.218361 0.147127 0.15191 0.428543 0.126752
threshold=-12.207142857142856 -3.2499999999999996 -2.0499999999999994 1.2950000000000002 907.50000000000011 8.0642857142857167 7.7214285714285724 -3.1499999999999999
decision_type=8 8 8 10 8 10 10 10
left_child=-1 3 -3 -2 -4 6 -6 -7
right_child=1 2 4 -5 5 7 -8 -9
leaf_value=0.0033466929260175674 -0.0061691448447250188 0.0046896598373468113 0.0032105691507458688 0.00088282163538362679 -0.0011010654365589607 -0.00099870389408002105 0.0065865625331008983 -0.0050379869437986811
leaf_weight=25 21 26 25 23 103 52 22 31
leaf_count=25 21 26 25 23 103 52 22 31
internal_value=4.80923e-12 -0.00027613 9.87638e-05 -0.00248289 -0.000413525 -0.000849113 0.000251957 -0.00250735
internal_weight=328 303 259 44 233 208 125 83
internal_count=328 303 259 44 233 208 125 83
is_linear=0
shrinkage=0.05


Tree=24
num_leaves=13
num_cat=1
split_feature=0 10 20 20 16 0 18 20 8 16 16 22
split_gain=0.1202 0.177362 0.190156 0.418375 0.222869 0.156537 0.154135 0.139624 0.116584 0.0965286 0.234779 0.0826949
threshold=3758.5000000000005 0 -3.2499999999999996 1.3500000000000003 5.8642857142857157 3580.0000000000005 10.050000000000002 3.5500000000000003 2141.0000000000005 7.0785714285714283 8.328571428571431 9.8500000000000032
decision_type=10 9 8 10 10 8 10 10 10 10 10 10
left_child=1 5 -3 4 -4 6 -1 -5 -2 -8 -11 -9
right_child=8 2 3 7 -6 -7 9 11 -10 10 -12 -13
leaf_value=-0.0041802353191154979 0.0046307374835014344 -0.0036618392509851789 0.0013293919286557609 -0.004572225039425705 0.0074834439963583025 -0.0053863062380025027 -0.0025957432575523854 -0.0015931191639258311 0.00016017846363995756 0.005462502850042213 -0.0017088135164231065 0.0025720441925593399
leaf_weight=27 25 21 28 21 31 26 20 26 35 21 25 22
leaf_count=27 25 21 28 21 31 26 20 26 35 21 25 22
internal_value=-4.24845e-11 -0.000452891 0.000700995 0.00147154 0.00456288 -0.00180491 -0.000997731 -0.00117178 0.00202291 0.000304202 0.00156505 0.000315914
internal_weight=328 268 149 128 59 119 93 69 60 66 46 48
internal_count=328 268 149 128 59 119 93 69 60 66 46 48
cat_boundaries=0 1
cat_threshold=1082131520
is_linear=0
shrinkage=0.05


Tree=25
num_leaves=13
num_cat=0
split_feature=25 22 22 16 14 21 0 21 21 11 8 21
split_gain=0.118562 0.267929 0.2635 0.25524 0.167662 0.293842 0.146135 0.112673 0.129988 0.154968 0.136955 0.0807725
threshold=2.5000000000000004 6.8500000000000005 7.6500000000000012 7.9500000000000002 -1.3071428571428567 -3.1499999999999999 3284.0000000000005 -7.6499999999999995 -11.249999999999998 9.7300000000000022 2325.0000000000005 -5.8499999999999988
decision_type=2 10 10 10 10 10 10 10 10 10 8 10
left_child=1 -1 7 -3 -4 6 11 8 9 10 -2 -6
right_child=2 3 4 -5 5 -7 -8 -9 -10 -11 -12 -13
leaf_value=-0.0032245972415521035 0.0054945485529606236 0.0060187017855544891 -0.0051903773099184038 -0.00055769721884280446 -0.0025630602199170328 -0.0053550235394920626 0.0043238407629542048 -0.0015511573838262723 0.0048578621819615371 -0.002735293842852116 -0.00035684009082615376 0.0016292530065402388
leaf_weight=21 20 36 33 25 27 28 20 29 28 21 20 20
leaf_count=21 20 36 33 25 27 28 20 29 28 21 20 20
internal_value=1.93966e-11 0.00164652 -0.000548839 0.00332346 -0.00212003 -0.00105349 0.000744168 0.0011555 0.00203745 0.000742836 0.00256885 -0.000779097
internal_weight=328 82 246 61 128 95 67 118 89 61 40 47
internal_count=328 82 246 61 128 95 67 118 89 61 40 47
is_linear=0
shrinkage=0.05


Tree=26
num_leaves=10
num_cat=0
split_feature=15 11 16 16 11 22 9 21 18
split_gain=0.103388 0.107619 0.143523 0.503376 0.165328 0.131358 0.141363 0.108054 0.0820716
threshold=-12.392857142857142 26.250000000000004 7.7214285714285724 7.9500000000000002 7.3850000000000007 6.1500000000000012 3.1500000000000008 -3.1499999999999999 10.950000000000001
decision_type=8 10 8 8 10 10 10 10 10
left_child=-1 2 4 -4 -2 -6 -7 8 -5
right_child=1 -3 3 7 5 6 -8 -9 -10
leaf_value=0.0033106816191734237 -0.0047981644790111621 0.0032163258819353016 0.00752320055087859 0.0012383510415075404 -0.0040430368432267149 0.0037051637275991121 -0.0011349381549128643 -0.0031162496141129824 -0.0016547057061241225
leaf_weight=22 33 21 22 66 22 22 48 33 39
leaf_count=22 33 21 22 66 22 22 48 33 39
internal_value=-2.31411e-11 -0.000238023 -0.000492554 0.000499199 -0.001762 -0.000672937 0.000386237 -0.00062057 0.000163787
internal_weight=328 306 285 160 125 92 70 138 105
internal_count=328 306 285 160 125 92 70 138 105
is_linear=0
shrinkage=0.05


Tree=27
num_leaves=12
num_cat=0
split_feature=25 22 22 16 22 21 14 20 9 15 18
split_gain=0.107963 0.242123 0.233389 0.21768 0.161889 0.161619 0.178557 0.111707 0.219955 0.134319 0.100934
threshold=2.5000000000000004 6.8500000000000005 7.6500000000000012 7.9500000000000002 8.4500000000000011 -3.1499999999999999 -1.3071428571428567 -1.2499999999999998 5.1500000000000012 -5.5071428571428553 12.050000000000002
decision_type=2 10 10 10 10 10 10 10 8 10 10
left_child=1 -1 7 -3 -4 6 -6 8 -2 -9 -8
right_child=2 3 4 -5 5 -7 10 9 -10 -11 -12
leaf_value=-0.0030593870562456906 0.0049261932726949453 0.0056543846718139119 -0.0056117212437093262 -0.0004188876303378493 -0.0034882969558238984 -0.0046248316839337346 0.0042280488393523479 -0.0030129126173311046 -0.00070006022947382012 0.0023520321026444437 -0.00020022149978866501
leaf_weight=21 38 36 25 25 25 25 22 28 32 20 31
leaf_count=21 38 36 25 25 25 25 22 28 32 20 31
internal_value=-1.24445e-11 0.0015712 -0.000523734 0.00316534 -0.00200243 -0.00112639 -5.09251e-06 0.00108028 0.00235419 -0.000777519 0.00163793
internal_weight=328 82 246 61 128 103 78 118 70 48 53
internal_count=328 82 246 61 128 103 78 118 70 48 53
is_linear=0
shrinkage=0.05


Tree=28
num_leaves=13
num_cat=1
split_feature=0 10 23 25 16 18 0 18 8 16 16 12
split_gain=0.100006 0.157704 0.134261 0.158629 0.163407 0.145302 0.131137 0.13936 0.104447 0.0797484 0.192021 0.0569547
threshold=3758.5000000000005 0 3.1500000000000008 2.5000000000000004 7.8071428571428578 10.950000000000001 3580.0000000000005 10.050000000000002 2141.0000000000005 7.0785714285714283 8.328571428571431 2.5000000000000004
decision_type=10 9 8 2 10 10 8 10 10 10 10 8
left_child=1 6 3 -3 11 -6 7 -1 -2 -9 -11 -5
right_child=8 2 -4 4 5 -7 -8 9 -10 10 -12 -13
leaf_value=-0.0039790106695835239 0.0043135163271799688 0.0036954306027231123 0.0040615866705775256 -0.0013650433470805488 0.0037641167938709261 -0.001289394705302336 -0.004969665512012748 -0.0023507864680141211 8.2071841295276371e-05 0.0049558365983622416 -0.001529668411181774 -0.0050475209211331929
leaf_weight=27 25 24 25 21 25 33 26 20 35 21 25 21
leaf_count=27 25 24 25 21 25 33 26 20 35 21 25 21
internal_value=1.92946e-11 -0.000413099 0.000673705 4.4995e-05 -0.00083111 0.000888843 -0.0016886 -0.000952883 0.00184517 0.000285078 0.00143111 -0.00320628
internal_weight=328 268 149 124 100 58 119 93 60 66 46 42
internal_count=328 268 149 124 100 58 119 93 60 66 46 42
cat_boundaries=0 1
cat_threshold=1082131520
is_linear=0
shrinkage=0.05


Tree=29
num_leaves=9
num_cat=0
split_feature=2 0 9 0 20 14 17 0
split_gain=0.0940085 0.152315 0.158663 0.150477 0.110126 0.169895 0.133988 0.0600848
threshold=1.0000000180025095e-35 3758.5000000000005 4.7000000000000002 3580.0000000000005 -2.0499999999999994 -1.3785714285714283 3.5000000000000004 3284.0000000000005
decision_type=2 10 10 10 8 8 8 10
left_child=1 3 -3 4 -1 -6 -7 -2
right_child=7 2 -4 -5 5 6 -8 -9
leaf_value=0.0032638713287619445 -0.0042092035990208389 0.0056281246235594159 0.00019267679930760944 -0.0037476686079537976 -0.0042310767847558725 0.003315488175458966 -0.00035099189757831456 -0.00033348353113979104
leaf_weight=26 20 25 29 27 23 31 127 20
leaf_count=26 20 25 29 27 23 31 127 20
internal_value=-3.97516e-12 0.000315464 0.00270909 -0.00023691 0.000221015 -0.000216081 0.000368381 -0.00227134
internal_weight=328 288 54 234 207 181 158 40
internal_count=328 288 54 234 207 181 158 40
is_linear=0
shrinkage=0.05


Tree=30
num_leaves=12
num_cat=1
split_feature=10 11 21 14 0 8 23 22 8 15 14
split_gain=0.0886881 0.173754 0.17343 0.105692 0.103778 0.103147 0.152472 0.111836 0.0905259 0.133396 0.0877783
threshold=0 7.2100000000000017 3.7000000000000006 -1.5357142857142854 3079.5000000000005 2911.5000000000005 0.31500000000000006 7.3500000000000005 1005.0000000000001 -6.621428571428571 -2.714285714285714
decision_type=9 10 8 10 8 8 10 10 10 10 10
left_child=1 4 5 -3 -1 6 8 -7 -2 -10 -8
right_child=2 3 -4 -5 -6 7 10 -9 9 -11 -12
leaf_value=-0.001067963739236196 0.001079309368506074 -0.0018113412756334852 0.004620896997706344 0.0023270157372785941 -0.0056710102087818084 -0.00034134028140794153 0.0044149778428254653 0.0046451209983585972 -0.00099111993543126386 -0.005396015636622906 -0.0001618225635452704
leaf_weight=24 25 27 24 36 25 22 20 23 55 25 22
leaf_count=24 25 27 24 36 25 22 20 23 55 25 22
internal_value=-2.55546e-12 -0.00108639 0.00058646 0.000553434 -0.00341646 0.000112701 -0.000528502 0.0022073 -0.00154695 -0.00236765 0.00201761
internal_weight=328 112 216 63 49 192 147 45 105 80 42
internal_count=328 112 216 63 49 192 147 45 105 80 42
cat_boundaries=0 1
cat_threshold=8389696
is_linear=0
shrinkage=0.05


Tree=31
num_leaves=11
num_cat=0
split_feature=25 17 21 1 14 9 0 17 9 15
split_gain=0.0879358 0.329776 0.196214 0.115549 0.112547 0.138079 0.122549 0.111189 0.061501 0.0982317
threshold=2.5000000000000004 3.5000000000000004 -3.1499999999999999 1.0000000180025095e-35 -1.5357142857142854 4.7000000000000002 3610.5000000000005 2.5000000000000004 2.2500000000000004 -6.6999999999999984
decision_type=2 8 10 2 8 10 10 10 8 10
left_child=1 3 4 -1 5 6 -2 -6 -9 -10
right_child=2 -3 -4 -5 7 -7 -8 8 9 -11
leaf_value=0.0015846067285608678 -0.0021857301059823773 -0.0020788577378954036 -0.0037764160403687707 0.0066632124149085328 0.0041708687203936279 -0.003784189895359856 0.0025416463974799065 0.0026205175110827323 0.001566679065248796 -0.0021047186278002829
leaf_weight=21 26 37 38 24 24 33 29 23 35 38
leaf_count=21 26 37 38 24 24 33 29 23 35 38
internal_value=3.40728e-12 0.001418 -0.000472667 0.0042932 0.000130902 -0.00122727 0.000306887 0.00112689 0.0003659 -0.000344459
internal_weight=328 82 246 45 208 88 55 120 96 73
internal_count=328 82 246 45 208 88 55 120 96 73
is_linear=0
shrinkage=0.05


Tree=32
num_leaves=9
num_cat=0
split_feature=16 2 0 21 0 12 16 16
split_gain=0.084603 0.146941 0.196354 0.214657 0.125542 0.069766 0.157466 0.0928091
threshold=5.5571428571428578 1.0000000180025095e-35 3758.5000000000005 -11.249999999999998 3580.0000000000005 1.5000000000000002 7.9500000000000002 7.9071428571428575
decision_type=8 2 10 10 10 10 8 10
left_child=-1 2 4 -4 5 6 -2 -7
right_child=1 -3 3 -5 -6 7 -8 -9
leaf_value=-0.0027367978911990161 0.0034102051518857483 -0.0027623545119745867 0.00012203491819293602 0.0068816528189927341 -0.0033227924089878798 -0.0030738159490283582 -0.0001301865031086661 0.0013233676020588195
leaf_weight=26 46 36 23 24 25 28 99 21
leaf_count=26 46 36 23 24 25 28 99 21
internal_value=-2.44898e-12 0.000235618 0.000641359 0.00357375 1.20321e-05 0.000441778 0.000992972 -0.00118931
internal_weight=328 302 266 47 219 194 145 49
internal_count=328 302 266 47 219 194 145 49
is_linear=0
shrinkage=0.05


Tree=33
num_leaves=12
num_cat=0
split_feature=25 17 22 17 20 22 20 21 21 22 17
split_gain=0.0789048 0.286751 0.201389 0.223585 0.158905 0.0899228 0.0892578 0.195001 0.0712478 0.0969171 0.0785468
threshold=2.5000000000000004 3.5000000000000004 7.6500000000000012 1.5000000000000002 0.45000000000000007 6.9500000000000011 -1.2499999999999998 -12.949999999999998 -3.1499999999999999 8.8000000000000025 5.5000000000000009
decision_type=2 8 10 10 10 8 10 10 10 10 10
left_child=1 4 5 -4 -1 6 7 -2 9 -5 -11
right_child=2 -3 3 8 -6 -7 -8 -9 -10 10 -12
leaf_value=0.0011184007435551158 -0.0013489492848748341 -0.0019175616289627412 -0.0052959708099746539 -0.0028221887536346913 0.0070622815390710128 0.0031677934726966278 -0.001595654372030344 0.0053359326906502252 -0.0032123846060130748 0.0034661904868224396 -0.00039024690706883711
leaf_weight=23 24 37 34 20 22 35 39 20 20 23 31
leaf_count=23 24 37 34 20 22 35 39 20 20 23 31
internal_value=1.5386e-11 0.00134322 -0.000447738 -0.00182133 0.0040243 0.00104226 0.000145944 0.00168963 -0.00056454 0.000151094 0.00125231
internal_weight=328 82 246 128 45 118 83 44 94 74 54
internal_count=328 82 246 128 45 118 83 44 94 74 54
is_linear=0
shrinkage=0.05


Tree=34
num_leaves=14
num_cat=1
split_feature=10 11 21 0 9 20 8 21 12 12 8 17 25
split_gain=0.0783997 0.153824 0.138028 0.100512 0.0971116 0.139989 0.175249 0.101264 0.167923 0.0843014 0.0663705 0.0812794 0.0078529
threshold=0 7.2100000000000017 3.7000000000000006 3079.5000000000005 4.1500000000000012 1.3500000000000003 907.50000000000011 -12.949999999999998 1.0000000180025095e-35 1.0000000180025095e-35 1915.0000000000002 3.5000000000000004 4.5000000000000009
decision_type=9 10 8 8 10 10 10 10 10 10 10 10 2
left_child=1 3 4 -1 5 7 -7 -2 -9 -6 11 -3 -8
right_child=2 10 -4 -5 9 6 12 8 -10 -11 -12 -13 -14
leaf_value=-0.00090248471933591652 -0.00065168556757271294 0.004006034452468157 0.0041518894082400951 -0.005432524025440217 -0.0037415290305104392 0.002071682617726413 -0.0035854747873686611 0.0068401944167404017 0.0010472502623652591 0.00041408085304757826 -0.0016186492031683094 -0.00050172000657767058 -0.0022011044062674049
leaf_weight=24 20 20 24 25 26 31 21 22 29 23 23 20 20
leaf_count=24 20 20 24 25 26 31 21 22 29 23 23 20 20
internal_value=-3.52706e-13 -0.00102144 0.000551395 -0.00321373 0.000130052 0.000788293 -0.000765207 0.00236367 0.00354617 -0.00179094 0.000521545 0.00175216 -0.00291017
internal_weight=328 112 216 49 192 143 72 71 51 49 63 40 41
internal_count=328 112 216 49 192 143 72 71 51 49 63 40 41
cat_boundaries=0 1
cat_threshold=8389696
is_linear=0
shrinkage=0.05


Tree=35
num_leaves=9
num_cat=0
split_feature=16 2 18 18 22 8 16 16
split_gain=0.0794661 0.122213 0.112175 0.214893 0.149688 0.134337 0.127614 0.167274
threshold=5.5571428571428578 1.0000000180025095e-35 13.950000000000001 10.950000000000001 8.8000000000000025 1531.5000000000002 7.0357142857142874 7.7214285714285724
decision_type=8 2 10 10 10 8 8 8
left_child=-1 2 3 6 -5 -4 -2 -8
right_child=1 -3 5 4 -6 -7 7 -9
leaf_value=-0.0026524106318202732 0.0041370642082444549 -0.0025057447084691378 0.0059311843803152445 0.00066227547896022991 -0.0042355339645814057 0.00038271615436921518 -0.0023180021356031494 0.0016381832393300205
leaf_weight=26 29 36 20 26 39 24 38 90
leaf_count=26 29 36 20 26 39 24 38 90
internal_value=-1.10027e-12 0.000228353 0.000598382 0.000141264 -0.00227641 0.00290475 0.00114221 0.000463691
internal_weight=328 302 266 222 65 44 157 128
internal_count=328 302 266 222 65 44 157 128
is_linear=0
shrinkage=0.05


Tree=36
num_leaves=9
num_cat=1
split_feature=15 11 16 10 18 8 15 20
split_gain=0.0752911 0.0949062 0.11779 0.11093 0.122707 0.229535 0.0869733 0.186541
threshold=-12.207142857142856 26.250000000000004 5.8642857142857157 0 14.550000000000002 2172.5000000000005 -10.22142857142857 -1.3499999999999999
decision_type=8 10 8 9 8 8 10 10
left_child=-1 2 -2 6 5 -5 -4 -8
right_child=1 -3 3 4 -6 -7 7 -9
leaf_value=0.0026372793135233225 -0.0035368575764420842 0.0030251336106587026 -0.0032462904512932573 -0.0016425911613623613 0.0034369916965564097 0.0038546290007178429 0.0038920116610825064 -0.0015833729699079415
leaf_weight=25 28 21 37 64 36 27 20 70
leaf_count=25 28 21 37 64 36 27 20 70
internal_value=1.5e-11 -0.000217597 -0.000459077 -0.000119794 0.000895481 -1.15478e-05 -0.00111758 -0.000366621
internal_weight=328 303 282 254 127 91 127 90
internal_count=328 303 282 254 127 91 127 90
cat_boundaries=0 1
cat_threshold=1082131520
is_linear=0
shrinkage=0.05


Tree=37
num_leaves=8
num_cat=0
split_feature=15 11 16 14 21 1 16
split_gain=0.0679502 0.0856529 0.106306 0.090306 0.116707 0.108853 0.106087
threshold=-12.207142857142856 26.250000000000004 5.8642857142857157 -3.964285714285714 -9.8499999999999996 1.0000000180025095e-35 8.3928571428571441
decision_type=8 10 8 8 8 2 10
left_child=-1 2 -2 -4 6 -6 -5
right_child=1 -3 3 4 5 -7 -8
leaf_value=0.0025054153632372619 -0.0033600147331266533 0.0028738770323495071 -0.0032541676291397642 0.0043527371283354505 -0.0013361721702526196 0.0011717944186639742 -0.00041516743600368506
leaf_weight=25 28 21 21 28 116 69 20
leaf_count=25 28 21 21 28 116 69 20
internal_value=9.24579e-12 -0.000206717 -0.000436123 -0.000113805 0.000169232 -0.000400768 0.00236611
internal_weight=328 303 282 254 233 185 48
internal_count=328 303 282 254 233 185 48
is_linear=0
shrinkage=0.05


Tree=38
num_leaves=13
num_cat=0
split_feature=25 17 22 17 20 22 9 20 16 18 9 9
split_gain=0.0729276 0.250838 0.171264 0.19164 0.13876 0.0871879 0.0848025 0.0951113 0.110577 0.0622059 0.195496 0.178684
threshold=2.5000000000000004 3.5000000000000004 7.6500000000000012 1.5000000000000002 0.45000000000000007 6.8500000000000005 4.1500000000000012 -1.3499999999999999 8.3928571428571441 12.250000000000002 3.1500000000000008 4.7000000000000002
decision_type=2 8 10 10 10 10 10 8 8 10 8 8
left_child=1 4 5 -4 -1 6 7 -2 -9 11 -11 -5
right_child=2 -3 3 9 -6 -7 -8 8 -10 10 -12 -13
leaf_value=0.0010834614057903705 0.0021310330412927128 -0.0017584213458404349 -0.0049140071308048554 -0.0017297126277680359 0.0066378023956944658 0.00370579529148729 0.0026455997006484757 -0.0045017292723059654 0.00035864892601966859 0.0016809941036626697 -0.0050781887934452088 0.0043320878781378273
leaf_weight=23 21 37 34 31 22 23 27 22 25 20 23 20
leaf_count=23 21 37 34 31 22 23 27 22 25 20 23 20
internal_value=-1.41171e-11 0.00129134 -0.000430446 -0.00169714 0.00379892 0.000943596 0.000274853 -0.000666472 -0.00191642 -0.000533594 -0.00193438 0.000647464
internal_weight=328 82 246 128 45 118 95 68 47 94 43 51
internal_count=328 82 246 128 45 118 95 68 47 94 43 51
is_linear=0
shrinkage=0.05


Tree=39
num_leaves=12
num_cat=0
split_feature=25 17 20 20 22 14 22 11 16 22 8
split_gain=0.0658172 0.226382 0.156739 0.125231 0.120741 0.161392 0.10237 0.0906949 0.0818228 0.0816544 0.0795993
threshold=2.5000000000000004 3.5000000000000004 8.4500000000000011 0.45000000000000007 7.6500000000000012 -1.3071428571428567 6.6500000000000012 5.705000000000001 7.8071428571428578 4.8500000000000005 1595.0000000000002
decision_type=2 8 10 10 10 10 10 10 8 10 8
left_child=1 3 4 -1 6 -6 8 -7 9 -2 -9
right_child=2 -3 -4 -5 5 7 -8 10 -10 -11 -12
leaf_value=0.0010292883294270091 0.001229955442249775 -0.0016705001654053057 -0.0041613956810469975 0.0063059124386530708 -0.0040839570630906213 -0.0018860973978669128 0.0039952567256987094 -0.00045063579455018044 0.0020936530769655581 -0.0029089212113131702 0.0038070863245853355
leaf_weight=23 22 37 25 22 33 33 25 23 38 26 21
leaf_count=23 22 37 25 22 33 33 25 23 38 26 21
internal_value=8.27307e-12 0.00122677 -0.000408924 0.00360897 1.55642e-05 -0.00115843 0.00117898 9.53633e-05 0.000360301 -0.00101194 0.00158146
internal_weight=328 82 246 45 221 110 111 77 86 48 44
internal_count=328 82 246 45 221 110 111 77 86 48 44
is_linear=0
shrinkage=0.05


Tree=40
num_leaves=11
num_cat=0
split_feature=16 25 17 22 17 22 9 21 22 0
split_gain=0.0643598 0.103469 0.329894 0.160669 0.176452 0.0782551 0.115283 0.0595205 0.0999436 0.0568918
threshold=5.5571428571428578 2.5000000000000004 3.5000000000000004 7.6500000000000012 1.5000000000000002 6.8500000000000005 4.1500000000000012 -3.1499999999999999 10.750000000000002 3300.0000000000005
decision_type=8 2 8 10 10 10 10 10 10 10
left_child=-1 2 -2 5 -5 6 9 8 -6 -3
right_child=1 3 -4 4 7 -7 -8 -9 -10 -11
leaf_value=-0.0023870267367993411 0.0052441107147185705 -0.0017986445873975753 -0.0015248364445546436 -0.0047260364517569542 -0.0013047609803115215 0.0037808854810216213 0.0035297238035127522 -0.0028381689544767145 0.0024554658215492965 0.0014151660281987418
leaf_weight=26 36 40 36 32 43 22 22 20 30 21
leaf_count=26 36 40 36 32 43 22 22 20 30 21
internal_value=-2.17303e-11 0.000205506 0.00185964 -0.00031231 -0.0015235 0.00112958 0.000426827 -0.00042155 0.000240538 -0.000692251
internal_weight=328 302 72 230 125 105 83 93 73 61
internal_count=328 302 72 230 125 105 83 93 73 61
is_linear=0
shrinkage=0.05


Tree=41
num_leaves=12
num_cat=1
split_feature=0 10 23 18 8 21 22 0 22 22 0
split_gain=0.0597495 0.0825564 0.295542 0.12794 0.115392 0.107064 0.134839 0.0897397 0.218077 0.0656993 0.0499235
threshold=3930.0000000000005 0 1.0000000180025095e-35 8.2500000000000018 1031.0000000000002 1.0000000000000002 6.9500000000000011 3104.0000000000005 10.750000000000002 10.050000000000002 3358.5000000000005
decision_type=10 9 8 10 10 10 8 8 8 10 10
left_child=1 2 4 -4 -1 6 10 9 -9 -8 -3
right_child=-2 5 3 -5 -6 -7 7 8 -10 -11 -12
leaf_value=0.001431650152274718 0.0020176886164611492 -0.00042398052423128063 0.0011590867469619427 0.0065030615621556841 -0.0029748077623737166 0.0025729398662224412 0.0016361401460710029 -0.0055807095091400111 -0.0002221692370606915 -0.0023189428794596879 0.0028467828687280417
leaf_weight=24 33 28 21 24 39 20 21 43 34 21 20
leaf_count=24 33 28 21 24 39 20 21 43 34 21 20
internal_value=1.25288e-11 -0.000225708 0.000836919 0.00400921 -0.00129616 -0.00083929 -0.0012982 -0.00220053 -0.0032146 -0.000341401 0.000938838
internal_weight=328 295 108 45 63 187 167 119 77 42 48
internal_count=328 295 108 45 63 187 167 119 77 42 48
cat_boundaries=0 1
cat_threshold=1577218
is_linear=0
shrinkage=0.05


Tree=42
num_leaves=10
num_cat=0
split_feature=16 25 17 20 22 14 22 9 17
split_gain=0.0580066 0.0930035 0.29115 0.14881 0.111115 0.13659 0.0908498 0.0906938 0.0895663
threshold=5.5571428571428578 2.5000000000000004 3.5000000000000004 8.4500000000000011 7.6500000000000012 -1.3071428571428567 6.6500000000000012 4.1500000000000012 4.5000000000000009
decision_type=8 2 8 10 10 10 10 10 10
left_child=-1 2 -2 4 6 -6 7 -3 -7
right_child=1 3 -4 -5 5 8 -8 -9 -10
leaf_value=-0.0022661504953598176 0.0049428706380745605 -0.00061148312645700753 -0.0014161830289392838 -0.0040218863936994842 -0.0037082159908095494 0.0027124851456998538 0.0040305126715490282 0.0032711555815434883 -0.00098019722835698104
leaf_weight=26 36 53 36 24 32 24 24 21 52
leaf_count=26 36 53 36 24 32 24 24 21 52
internal_value=2.78793e-11 0.000195099 0.00176334 -0.00029583 0.000138274 -0.000967903 0.00135733 0.000490347 0.000185913
internal_weight=328 302 72 230 206 108 98 74 76
internal_count=328 302 72 230 206 108 98 74 76
is_linear=0
shrinkage=0.05


Tree=43
num_leaves=13
num_cat=1
split_feature=10 11 21 9 20 8 18 12 14 20 15 18
split_gain=0.0529185 0.129495 0.102596 0.112517 0.114132 0.137518 0.110617 0.0905225 0.0766355 0.0524515 0.0859989 0.0138114
threshold=0 4.9350000000000014 3.7000000000000006 4.1500000000000012 1.3500000000000003 907.50000000000011 10.050000000000002 1.0000000180025095e-35 2.5214285714285718 -1.3499999999999999 -5.3785714285714272 12.050000000000002
decision_type=9 10 8 10 10 10 10 10 10 10 10 10
left_child=1 8 3 4 6 -6 -2 -5 -1 -3 -11 -7
right_child=2 9 -4 7 5 11 -8 -9 -10 10 -12 -13
leaf_value=-0.00093634514603763814 0.0041656784021243875 0.0020133294972013039 0.0035561279199403852 -0.0040003227240119413 0.0019075425822407969 -0.0034459004364907745 0.00021816154808870387 0.00030589157148547795 -0.0052610067828070557 -0.0029086361289955677 0.0016215366567485035 -0.0016099682698647183
leaf_weight=20 36 29 24 26 31 20 35 23 21 22 20 21
leaf_count=20 36 29 24 26 31 20 35 23 21 22 20 21
internal_value=-3.6382e-11 -0.000839186 0.000453012 8.8717e-05 0.000797249 -0.000605466 0.00221972 -0.00197904 -0.00315142 0.000377849 -0.000751411 -0.00250554
internal_weight=328 112 216 192 143 72 71 49 41 71 42 41
internal_count=328 112 216 192 143 72 71 49 41 71 42 41
cat_boundaries=0 1
cat_threshold=8389696
is_linear=0
shrinkage=0.05


Tree=44
num_leaves=11
num_cat=0
split_feature=25 22 21 21 14 22 21 14 9 15
split_gain=0.0489972 0.179402 0.146995 0.120353 0.0765572 0.143832 0.0859973 0.0979683 0.0574039 0.047079
threshold=2.5000000000000004 6.8500000000000005 -6.2499999999999991 -3.1499999999999999 -1.3071428571428567 7.4500000000000011 -10.149999999999997 1.9571428571428571 3.7000000000000002 -10.707142857142854
decision_type=2 10 10 10 8 8 8 8 8 10
left_child=1 -1 -3 4 5 9 -6 -8 -9 -2
right_child=3 2 -4 -5 6 -7 7 8 -10 -11
leaf_value=-0.0029274815493928537 0.0020320189093971357 0.0054782450393152738 0.0004538897840255821 -0.0029402625446796025 0.0036449424223974347 -0.0035370675381273032 -0.0024607638828456403 0.0026203184996524617 -0.00031493829897484712 -0.00079643894850666959
leaf_weight=21 28 24 37 38 24 34 24 36 31 31
leaf_count=21 28 24 37 38 24 34 24 36 31 31
internal_value=9.60071e-12 0.00105847 0.00243069 -0.000352824 0.000119881 -0.00094681 0.00098251 0.00028033 0.00126221 0.00054588
internal_weight=328 82 61 246 208 93 115 91 67 59
internal_count=328 82 61 246 208 93 115 91 67 59
is_linear=0
shrinkage=0.05


Tree=45
num_leaves=10
num_cat=0
split_feature=16 2 25 16 18 8 15 21 18
split_gain=0.0516494 0.0837007 0.101121 0.322276 0.092308 0.120895 0.0957353 0.231517 0.146442
threshold=5.5571428571428578 1.0000000180025095e-35 2.5000000000000004 7.9500000000000002 12.250000000000002 1500.5000000000002 -10.22142857142857 -10.149999999999997 9.2500000000000018
decision_type=8 2 2 8 10 8 8 8 10
left_child=-1 2 3 -2 6 -6 8 -8 -4
right_child=1 -3 4 -5 5 -7 7 -9 -10
leaf_value=-0.0021383681262914954 0.0056380085703549966 -0.0020785686376661437 0.0018870735540986062 -0.0015867608173846686 0.00072417055683520934 -0.004470589042709131 0.0062106907553970822 0.00025729999048216791 -0.0035954372800790289
leaf_weight=26 33 36 21 29 21 24 20 89 29
leaf_count=26 33 36 21 29 21 24 20 89 29
internal_value=-2.06966e-12 0.000184098 0.000490323 0.00225868 -4.71185e-05 -0.00204637 0.000518707 0.00134967 -0.00129278
internal_weight=328 302 266 62 204 45 159 109 50
internal_count=328 302 266 62 204 45 159 109 50
is_linear=0
shrinkage=0.05


Tree=46
num_leaves=9
num_cat=0
split_feature=16 18 25 9 21 9 22 22
split_gain=0.0466136 0.0805603 0.148106 0.104173 0.126312 0.111741 0.158075 0.0914486
threshold=5.5571428571428578 14.050000000000002 2.5000000000000004 5.2500000000000009 -3.1499999999999999 3.7000000000000002 8.1000000000000014 6.6500000000000012
decision_type=8 10 2 10 10 10 10 10
left_child=-1 3 -3 4 5 7 -7 -2
right_child=1 2 -4 -5 -6 6 -8 -9
leaf_value=-0.002031449704932479 -0.00074800550852986908 0.0053382315149065112 -0.00033862673552465384 0.0026454890740971113 -0.0032532979785982103 0.00036100574004064716 -0.0048446212634444237 0.0019362155032188943
leaf_weight=26 55 20 27 29 36 35 25 75
leaf_count=26 55 20 27 29 36 35 25 75
internal_value=3.40728e-12 0.000174893 0.00207706 -0.000175702 -0.000537713 -2.31814e-05 -0.00180801 0.000800584
internal_weight=328 302 47 255 226 190 60 130
internal_count=328 302 47 255 226 190 60 130
is_linear=0
shrinkage=0.05


Tree=47
num_leaves=10
num_cat=0
split_feature=11 16 8 15 8 8 0 15 16
split_gain=0.0520376 0.0733329 0.0704594 0.131279 0.120495 0.107781 0.0927033 0.0825086 0.111152
threshold=26.250000000000004 5.8642857142857157 907.50000000000011 -6.6999999999999984 1475.0000000000002 1164.0000000000002 2931.5000000000005 -7.928571428571427 6.6857142857142877
decision_type=10 8 8 10 8 10 10 10 8
left_child=1 -1 -3 7 5 -5 -6 8 -4
right_child=-2 2 3 4 6 -7 -8 -9 -10
leaf_value=-0.0025238681305199862 0.0022414188521603746 0.0027287346767717164 0.0035591390491026688 -0.0020454042788165118 -0.0012537322099281786 0.0027097489578988068 -0.005695919612544063 0.0029931991201010534 -0.00051098371443983456
leaf_weight=30 24 23 20 26 24 22 23 32 104
leaf_count=30 24 23 20 26 24 22 23 32 104
internal_value=-1.7307e-11 -0.000176954 8.00072e-05 -0.000162705 -0.00162802 0.000134041 -0.00342757 0.000729634 0.000145488
internal_weight=328 304 274 251 95 48 47 156 124
internal_count=328 304 274 251 95 48 47 156 124
is_linear=0
shrinkage=0.05


Tree=48
num_leaves=12
num_cat=1
split_feature=0 10 23 9 18 21 22 0 22 22 0
split_gain=0.0426215 0.0647378 0.241258 0.122298 0.111771 0.104878 0.104779 0.0818934 0.18626 0.0507727 0.0439384
threshold=3930.0000000000005 0 1.0000000180025095e-35 2.7000000000000006 8.2500000000000018 1.0000000000000002 6.9500000000000011 3104.0000000000005 10.750000000000002 10.050000000000002 3358.5000000000005
decision_type=10 9 8 10 10 10 8 8 8 10 10
left_child=1 2 3 -1 -4 6 10 9 -9 -8 -3
right_child=-2 5 4 -5 -6 -7 7 8 -10 -11 -12
leaf_value=0.0012847161452685084 0.0017041257081666227 -0.00049004144633987129 0.00095121655169697029 -0.0031486785455074697 0.0059460947627182278 0.0026479111448861662 0.001535518290031524 -0.0051343459202799688 -0.00018211033825269517 -0.0019413690459692762 0.0025784077821299437
leaf_weight=28 33 28 21 35 24 20 21 43 34 21 20
leaf_count=28 33 28 21 35 24 20 21 43 34 21 20
internal_value=-2.04082e-12 -0.000190631 0.000749577 -0.00117828 0.00361515 -0.000734448 -0.0011835 -0.00197892 -0.00294764 -0.000202925 0.000788479
internal_weight=328 295 108 63 45 187 167 119 77 42 48
internal_count=328 295 108 63 45 187 167 119 77 42 48
cat_boundaries=0 1
cat_threshold=1577218
is_linear=0
shrinkage=0.05


Tree=49
num_leaves=10
num_cat=0
split_feature=0 9 15 2 21 20 20 15 0
split_gain=0.041239 0.0620154 0.155919 0.119521 0.106848 0.220219 0.126569 0.118845 0.162568
threshold=2519.0000000000005 2.7000000000000006 -5.7785714285714276 1.0000000180025095e-35 -10.35 -2.0499999999999994 0.45000000000000007 -11.485714285714282 3536.0000000000005
decision_type=8 8 10 2 8 8 8 10 10
left_child=-1 2 -2 4 7 -6 -7 -3 -9
right_child=1 3 -4 -5 5 6 -8 8 -10
leaf_value=-0.0019953468290623277 -0.00066293235092113425 0.0011578015334089288 0.0048089040746993345 -0.0036907796364341102 0.005341010432069501 -0.0032383226366895857 0.00086406977435809031 -0.00044642065105767088 -0.0063060607539955531
leaf_weight=24 30 30 23 22 24 23 103 29 20
leaf_count=24 30 30 23 22 24 23 103 29 20
internal_value=-1.27507e-11 0.000157527 0.00171164 -0.000170631 0.000167549 0.000951347 0.00011522 -0.00132068 -0.00283811
internal_weight=328 304 53 251 229 150 126 79 49
internal_count=328 304 53 251 229 150 126 79 49
is_linear=0
shrinkage=0.05


Tree=50
num_leaves=11
num_cat=0
split_feature=11 0 1 24 26 0 9 21 22 18
split_gain=0.0446097 0.060441 0.0551904 0.146247 0.166458 0.172832 0.0909888 0.0854983 0.119253 0.0700313
threshold=26.250000000000004 3930.0000000000005 1.0000000180025095e-35 5.5000000000000009 1.0000000180025095e-35 3300.0000000000005 3.7000000000000002 -2.9499999999999997 6.1500000000000012 9.4500000000000011
decision_type=10 10 2 2 2 10 10 10 8 8
left_child=1 2 7 4 5 -4 -6 8 -1 -10
right_child=-2 -3 3 -5 6 -7 -8 -9 9 -11
leaf_value=-0.0039731627237051727 0.0020752897447285554 0.0018916190775598808 -0.00088644341740291572 0.0040875304617326363 -0.00034687521634623407 0.0049511670484207572 -0.005006620856213638 -0.0033730690360009191 0.0026775632337059665 -0.00044870554975429437
leaf_weight=20 24 32 32 22 20 21 22 31 23 81
leaf_count=20 24 32 32 22 20 21 22 31 23 81
internal_value=8.07454e-13 -0.000163839 -0.000405657 0.00041411 -0.000436577 0.00142657 -0.00278769 -0.00102445 -0.000437294 0.000242681
internal_weight=328 304 272 117 95 53 42 155 124 104
internal_count=328 304 272 117 95 53 42 155 124 104
is_linear=0
shrinkage=0.05


Tree=51
num_leaves=11
num_cat=1
split_feature=10 12 9 21 9 16 0 25 0 22
split_gain=0.039738 0.103819 0.130992 0.0932058 0.104923 0.108447 0.0708784 0.0629269 0.0489762 0.0442594
threshold=0 2.5000000000000004 4.1500000000000012 3.7000000000000006 4.1500000000000012 6.8357142857142872 2579.5000000000005 2.5000000000000004 2869.5000000000005 10.050000000000002
decision_type=9 8 10 8 10 10 10 2 10 10
left_child=1 9 -3 4 6 -6 -2 -8 -9 -1
right_child=3 2 -4 -5 5 -7 7 8 -10 -11
leaf_value=0.001947493244188081 -0.0020328292815247552 -0.0042596538290929275 0.00069182376927611508 0.0033484507187192016 0.00087922706501558428 -0.0039066586057366478 0.0034735269534091153 0.0027630636379832314 4.2724457736580803e-05 -0.00089295153156854212
leaf_weight=32 20 34 22 24 20 29 24 21 78 24
leaf_count=32 20 34 22 24 20 29 24 21 78 24
internal_value=1.25821e-11 -0.000727206 -0.00231443 0.000392563 4.35226e-05 -0.00195324 0.000727727 0.0011766 0.000619766 0.00073016
internal_weight=328 112 56 216 192 49 143 123 99 56
internal_count=328 112 56 216 192 49 143 123 99 56
cat_boundaries=0 1
cat_threshold=8389696
is_linear=0
shrinkage=0.05


Tree=52
num_leaves=13
num_cat=1
split_feature=18 16 21 10 14 23 23 20 17 21 16 12
split_gain=0.0368795 0.0908235 0.0819747 0.0538564 0.168824 0.15339 0.143863 0.111605 0.10439 0.1072 0.0512932 0.0396862
threshold=13.950000000000001 7.9071428571428575 -3.1499999999999999 0 -1.5357142857142854 0.38500000000000006 0.10500000000000002 1.1500000000000001 3.5000000000000004 -12.35 8.0642857142857167 1.5000000000000002
decision_type=10 10 10 9 8 10 8 8 10 10 10 8
left_child=2 -2 3 4 5 -1 8 -6 9 -5 -4 -8
right_child=1 -3 10 6 7 -7 11 -9 -10 -11 -12 -13
leaf_value=-0.0042982337464179312 -0.0007966987641217808 0.0031273601909874585 -0.00054625529155600823 -0.00011931279718521096 0.0058373013145423362 0.0013547585216916302 -0.004325213059782982 0.0010847522070010502 -0.0013356026036490222 0.0048750608566809793 -0.0041272177628707144 -0.0015182787134750365
leaf_weight=21 30 29 20 21 21 28 20 30 32 22 20 34
leaf_count=21 30 29 20 21 21 28 20 30 32 22 20 34
internal_value=-1.6433e-11 0.00113208 -0.000248299 0.000116493 0.000934511 -0.00106795 -0.000547621 0.00304168 0.000826753 0.00243595 -0.00233674 -0.00255788
internal_weight=328 59 269 229 100 49 129 51 75 43 40 54
internal_count=328 59 269 229 100 49 129 51 75 43 40 54
cat_boundaries=0 1
cat_threshold=5378
is_linear=0
shrinkage=0.05


Tree=53
num_leaves=9
num_cat=0
split_feature=11 16 2 0 9 16 16 9
split_gain=0.0400178 0.0575728 0.0665631 0.0998912 0.156149 0.0788584 0.138371 0.0844251
threshold=26.250000000000004 5.8642857142857157 1.0000000180025095e-35 3758.5000000000005 4.7000000000000002 7.2785714285714294 7.9500000000000002 4.2500000000000009
decision_type=10 8 2 10 10 8 8 8
left_child=1 -1 3 5 -5 7 -7 -3
right_child=-2 2 -4 4 -6 6 -8 -9
leaf_value=-0.0022346665865431228 0.0019655795379852257 0.00025469759362749755 -0.0020706046314444395 0.0057723562349565327 -0.00026845228250907817 0.0029753788613165037 -0.00045636814858513976 -0.0042844383700174236
leaf_weight=30 24 20 32 20 23 39 119 21
leaf_count=30 24 20 32 20 23 39 119 21
internal_value=-8.16327e-12 -0.000155177 7.2504e-05 0.00035589 0.00254123 -0.000116318 0.000390709 -0.00207023
internal_weight=328 304 274 242 43 199 158 41
internal_count=328 304 274 242 43 199 158 41
is_linear=0
shrinkage=0.05


Tree=54
num_leaves=14
num_cat=1
split_feature=10 11 21 9 20 20 8 21 12 12 14 14 17
split_gain=0.0371137 0.0987884 0.0827518 0.089716 0.0943215 0.127561 0.145536 0.088849 0.107458 0.0804138 0.0611309 0.04758 0.0560372
threshold=0 4.9350000000000014 3.7000000000000006 4.1500000000000012 1.3500000000000003 3.5500000000000003 907.50000000000011 -12.949999999999998 1.0000000180025095e-35 1.0000000180025095e-35 2.5214285714285718 -1.5357142857142854 4.5000000000000009
decision_type=9 10 8 10 10 10 10 10 10 10 10 10 10
left_child=1 10 3 4 7 -6 -7 -2 -9 -5 -1 -3 -13
right_child=2 11 -4 9 5 6 -8 8 -10 -11 -12 12 -14
leaf_value=-0.00074130347929894929 -0.00084772018482908622 -0.0012894302416868785 0.003165011367915819 -0.0037005449141011369 -0.0038712968916765284 0.003825516702437943 -0.0015674692498327328 0.0057194585438330916 0.0010853676093292648 0.00035811499894961067 -0.0046037947188042813 0.0031611931340938268 -0.00040752256543121558
leaf_weight=20 20 27 24 26 21 22 29 22 29 23 21 22 22
leaf_count=20 20 27 24 26 21 22 29 22 29 23 21 22 22
internal_value=-9.86303e-12 -0.000702784 0.000379379 5.09341e-05 0.000683614 -0.000591562 0.000758917 0.00197675 0.00308439 -0.00179546 -0.00271965 0.000362903 0.00137684
internal_weight=328 112 216 192 143 72 51 71 51 49 41 71 44
internal_count=328 112 216 192 143 72 51 71 51 49 41 71 44
cat_boundaries=0 1
cat_threshold=8389696
is_linear=0
shrinkage=0.05


Tree=55
num_leaves=13
num_cat=1
split_feature=10 18 20 15 20 21 20 18 15 22 20 17
split_gain=0.0385206 0.0864283 0.0738973 0.176833 0.167258 0.17617 0.107968 0.0712304 0.069107 0.0834479 0.0636177 0.0443366
threshold=0 10.350000000000003 -3.2499999999999996 -11.571428571428568 1.3500000000000003 -6.2499999999999991 3.5500000000000003 10.350000000000003 -7.928571428571427 9.8500000000000032 -2.0499999999999994 5.5000000000000009
decision_type=9 10 8 10 10 8 8 10 10 8 10 10
left_child=1 -1 3 -2 5 -4 -6 -8 10 -10 -3 -9
right_child=2 8 4 -5 6 -7 7 11 9 -11 -12 -13
leaf_value=-0.0027679626409533539 0.0019444008788559585 0.00037676046070243634 0.0050853878602777659 -0.0046248936404784521 -0.0034976121178426018 -0.0001414200382506741 -0.001759273041071455 0.0033072908006777819 0.0039186434684961571 -0.00031003161184344212 -0.0032162089895626366 9.537243195587681e-05
leaf_weight=36 20 28 38 21 22 28 22 22 20 28 22 21
leaf_count=36 20 28 38 21 22 28 22 22 20 28 22 21
internal_value=-5.39707e-12 -0.000626125 0.00044197 -0.00142036 0.000969913 0.00286795 -0.00046998 0.000554757 9.67824e-05 0.00145192 -0.00120415 0.00173868
internal_weight=328 134 194 41 153 66 87 65 98 48 50 43
internal_count=328 134 194 41 153 66 87 65 98 48 50 43
cat_boundaries=0 1
cat_threshold=1082131456
is_linear=0
shrinkage=0.05


Tree=56
num_leaves=11
num_cat=1
split_feature=10 0 18 9 0 14 21 25 9 18
split_gain=0.0347649 0.0835672 0.0710002 0.130987 0.0978967 0.0579397 0.0811976 0.0867768 0.0637743 0.0711636
threshold=0 3758.5000000000005 12.850000000000003 4.7000000000000002 3104.0000000000005 13.342857142857143 -3.1499999999999999 2.5000000000000004 4.2500000000000009 10.950000000000001
decision_type=9 10 10 10 10 8 10 2 10 10
left_child=1 2 3 4 -1 6 7 -2 9 -9
right_child=5 -3 -4 -5 -6 -7 -8 8 -10 -11
leaf_value=-0.0013476004790780802 0.0031978514433621272 0.0015900519836577589 0.000754382478069225 0.00051499858299004179 -0.0060222075495403263 0.002688140455633402 -0.0024042205850559255 0.0017531106425276784 -0.0024214542121626438 -0.0010293949002516457
leaf_weight=21 26 32 29 28 24 25 27 54 22 40
leaf_count=21 26 32 29 28 24 25 27 54 22 40
internal_value=1.08407e-11 -0.000594819 -0.00133858 -0.00217004 -0.00384072 0.000419872 0.000109174 0.000587073 1.89816e-06 0.000569066
internal_weight=328 134 102 73 45 194 169 142 116 94
internal_count=328 134 102 73 45 194 169 142 116 94
cat_boundaries=0 1
cat_threshold=1082131456
is_linear=0
shrinkage=0.05


Tree=57
num_leaves=12
num_cat=0
split_feature=16 18 8 20 8 15 21 21 18 21 18
split_gain=0.0337387 0.0586933 0.128769 0.0541411 0.0910243 0.075848 0.146022 0.156499 0.109818 0.101453 0.0614979
threshold=5.5571428571428578 14.050000000000002 1403.5000000000002 1.7500000000000002 1665.0000000000002 -10.22142857142857 -9.9999999999999982 -7.8499999999999988 9.2500000000000018 -14.499999999999998 10.350000000000003
decision_type=8 10 8 10 8 10 10 10 10 10 10
left_child=-1 3 -3 5 10 8 -7 -8 9 -2 -5
right_child=1 2 -4 4 -6 6 7 -9 -10 -11 -12
leaf_value=-0.0017282798223627303 -0.00092280621099616257 0.0048132394060667145 -0.00048006730266260335 -0.0042622185957346429 0.00093391692083541261 0.0042695898438493409 -0.0033749782031268945 0.0025950841463940298 -0.0026687523636438355 0.0035782513164338615 -0.00095647521974409329
leaf_weight=26 31 20 27 24 34 30 21 23 37 21 34
leaf_count=26 31 20 27 24 34 30 21 23 37 21 34
internal_value=9.67614e-12 0.000148792 0.0017724 -0.000150462 -0.00112022 0.000396887 0.00157973 -0.000254264 -0.000586602 0.000894929 -0.00232437
internal_weight=328 302 47 255 92 163 74 44 89 52 58
internal_count=328 302 47 255 92 163 74 44 89 52 58
is_linear=0
shrinkage=0.05


Tree=58
num_leaves=8
num_cat=0
split_feature=11 16 8 16 16 16 22
split_gain=0.0342475 0.0490014 0.0580624 0.0635034 0.0560721 0.275147 0.1165
threshold=26.250000000000004 5.8642857142857157 907.50000000000011 6.6857142857142877 7.7214285714285724 7.9500000000000002 9.4500000000000011
decision_type=10 8 8 8 8 8 10
left_child=1 -1 -3 -4 6 -6 -5
right_child=-2 2 3 4 5 -7 -8
leaf_value=-0.0020620116917416452 0.0018183539155870677 0.0024709434214183483 0.002136896623091565 -0.002973294707385785 0.0051577335871432137 -0.00078562679123060088 0.0012212046589702369
leaf_weight=30 24 23 27 49 23 127 25
leaf_count=30 24 23 27 49 23 127 25
internal_value=-1.04625e-11 -0.000143554 6.64958e-05 -0.000153832 -0.000429947 0.000125688 -0.00155623
internal_weight=328 304 274 251 224 150 74
internal_count=328 304 274 251 224 150 74
is_linear=0
shrinkage=0.05


Tree=59
num_leaves=12
num_cat=0
split_feature=11 8 21 20 21 20 18 15 15 18 11
split_gain=0.032858 0.147621 0.11696 0.164704 0.0843309 0.144305 0.0737171 0.065454 0.0956463 0.0911915 0.0277193
threshold=5.705000000000001 1475.0000000000002 -1.7 1.0000000180025095e-35 -12.549999999999999 -4.0499999999999989 12.15 -5.6428571428571415 -7.1571428571428557 10.550000000000002 12.495000000000003
decision_type=8 8 10 10 8 8 8 10 10 8 10
left_child=1 6 3 -3 -2 -6 -1 8 9 -7 -9
right_child=4 2 -4 -5 5 7 -8 10 -10 -11 -12
leaf_value=-0.00028785717246743539 -0.0021211489966813605 -0.0034468741122899316 -0.0051835260006815329 0.0020796674160430068 0.0046794115432671141 0.0028875453880539649 0.003768583428159002 0.0033319224719889464 -0.0029381106504135662 -0.000577396723383572 0.00069946829695254574
leaf_weight=24 29 28 21 26 21 27 21 20 27 64 20
leaf_count=24 29 28 21 26 21 27 21 20 27 64 20
internal_value=-1.21517e-11 -0.000658862 -0.00201727 -0.000785947 0.000380113 0.000785345 0.00160515 0.00026778 -0.000324734 0.000450663 0.0020157
internal_weight=328 120 75 54 208 179 45 158 118 91 40
internal_count=328 120 75 54 208 179 45 158 118 91 40
is_linear=0
shrinkage=0.05


Tree=60
num_leaves=13
num_cat=1
split_feature=9 10 18 22 9 14 22 21 22 25 14 1
split_gain=0.0322496 0.0567868 0.148576 0.0824408 0.0711821 0.0704891 0.0632507 0.126357 0.0882173 0.24269 0.073878 0.0470548
threshold=5.3500000000000005 0 10.350000000000003 10.050000000000002 5.1500000000000012 -1.5357142857142854 6.9500000000000011 -7.6499999999999995 7.6500000000000012 2.5000000000000004 1.9571428571428571 1.0000000180025095e-35
decision_type=10 9 8 8 8 10 8 10 10 2 10 2
left_child=1 2 -1 5 -5 -4 7 11 -8 -10 -11 -3
right_child=-2 6 3 4 -6 -7 8 -9 9 10 -12 -13
leaf_value=-0.0048344400090475879 0.0018956352158316543 0.0024064762491236807 -0.00058494655095273627 -2.933746281390389e-05 -0.0038248481650260237 0.0032886132193000422 0.0034291676403353775 -0.0036082746731117368 0.0050044843927025797 -0.0034540901962748687 5.6672480016903479e-05 -0.0008279937319457531
leaf_weight=21 21 23 24 30 21 23 31 25 21 23 43 22
leaf_count=21 21 23 24 30 21 23 31 25 21 23 43 22
internal_value=-4.01331e-11 -0.000129669 -0.00093896 -0.000200026 -0.00159219 0.00131063 0.000410694 -0.000758197 0.00113891 0.000322839 -0.00116678 0.00082518
internal_weight=328 307 119 98 51 47 188 70 118 87 66 45
internal_count=328 307 119 98 51 47 188 70 118 87 66 45
cat_boundaries=0 1
cat_threshold=1082131456
is_linear=0
shrinkage=0.05


Tree=61
num_leaves=12
num_cat=0
split_feature=11 11 3 23 21 21 22 0 18 14 12
split_gain=0.030644 0.0793762 0.0786747 0.0587818 0.088756 0.0935973 0.0448086 0.0998699 0.128889 0.0814198 0.0566001
threshold=5.1450000000000005 3.8150000000000004 1.0000000180025095e-35 0.24500000000000002 -6.8499999999999988 -0.24999999999999997 6.8500000000000005 3069.0000000000005 10.550000000000002 -4.2999999999999998 1.0000000180025095e-35
decision_type=8 10 2 10 10 10 8 8 8 10 10
left_child=1 3 6 4 -1 -6 10 -8 -9 -10 -2
right_child=2 -3 -4 -5 5 -7 7 8 9 -11 -12
leaf_value=-0.0035869105055462572 0.00079855644842609765 -0.003284947384077975 0.0026405104108562227 0.0019600523213200547 0.0026464572505337067 -0.0019153042494012467 0.0029778000013902786 0.0026307845522684082 0.0005693784107764563 -0.0028411057799877155 -0.0025921496628143362
leaf_weight=20 20 23 32 27 23 22 30 27 30 42 32
leaf_count=20 20 23 32 27 23 22 30 27 30 42 32
internal_value=4.3567e-12 -0.000657728 0.000355112 -9.23632e-07 -0.000815483 0.000416263 -4.89368e-05 0.000450543 -0.000315292 -0.00142007 -0.00128803
internal_weight=328 115 213 92 65 45 181 129 99 72 52
internal_count=328 115 213 92 65 45 181 129 99 72 52
is_linear=0
shrinkage=0.05


Tree=62
num_leaves=9
num_cat=0
split_feature=0 9 15 2 11 11 23 0
split_gain=0.0316731 0.0534763 0.107102 0.0830769 0.0932107 0.0804311 0.216337 0.0412447
threshold=2519.0000000000005 2.7000000000000006 -5.7785714285714276 1.0000000180025095e-35 1.3300000000000003 4.7950000000000008 1.0000000180025095e-35 3686.5000000000005
decision_type=8 8 10 2 8 8 10 10
left_child=-1 2 -2 4 -3 6 -6 -7
right_child=1 3 -4 -5 5 7 -8 -9
leaf_value=-0.0017486776909208857 -0.00038683186788451471 0.0031342129668463833 0.0041482174080675061 -0.0031014850238782611 -0.0059485777164809406 -0.00020551444781091762 0.0011617742013186217 0.0015735875427102049
leaf_weight=24 30 23 23 22 20 118 23 45
leaf_count=24 30 23 23 22 20 118 23 45
internal_value=-1.7195e-11 0.000138053 0.00158121 -0.000166676 0.00011527 -0.000221796 -0.00214537 0.000285649
internal_weight=328 304 53 251 229 206 43 163
internal_count=328 304 53 251 229 206 43 163
is_linear=0
shrinkage=0.05


Tree=63
num_leaves=12
num_cat=0
split_feature=15 1 0 14 21 20 20 15 14 21 16
split_gain=0.0302566 0.167492 0.26891 0.108272 0.0852454 0.157414 0.0851723 0.0740702 0.115826 0.101211 0.0597578
threshold=-6.6999999999999984 1.0000000180025095e-35 3079.5000000000005 5.3500000000000005 -10.35 -2.0499999999999994 0.45000000000000007 -11.485714285714282 -2.8071428571428565 -14.499999999999998 8.4785714285714295
decision_type=10 2 10 10 10 10 10 10 10 10 10
left_child=4 2 10 -3 7 -6 -7 9 -9 -1 -2
right_child=1 3 -4 -5 5 6 -8 8 -10 -11 -12
leaf_value=-0.00088990518300928868 0.0017911895505330041 -0.0004853419261053205 -0.0070761977159418165 0.0041445381650903629 0.0048218001539890587 -0.0021431971671214949 0.0017021719838440832 -0.0047553145747986584 -3.2449082594693584e-05 0.0033124489223827487 -0.0016011513167006131
leaf_weight=38 21 28 20 23 26 24 36 21 34 23 34
leaf_count=38 21 28 20 23 26 24 36 21 34 23 34
internal_value=6.504e-12 -0.000608042 -0.00211131 0.00160264 0.000379274 0.00157219 0.000164024 -0.000505129 -0.00183572 0.000694589 -0.000305894
internal_weight=328 126 75 51 202 86 60 116 55 61 55
internal_count=328 126 75 51 202 86 60 116 55 61 55
is_linear=0
shrinkage=0.05


Tree=64
num_leaves=12
num_cat=1
split_feature=0 9 22 10 21 11 9 21 20 8 14
split_gain=0.0300254 0.0469303 0.0665341 0.0626948 0.145523 0.13511 0.120239 0.106357 0.08496 0.0580578 0.0322795
threshold=2519.0000000000005 2.7000000000000006 8.2500000000000018 0 -10.35 7.2100000000000017 3.2500000000000004 -7.0499999999999989 6.3500000000000005 1860.0000000000002 -1.5357142857142854
decision_type=8 8 10 9 8 10 10 8 8 10 10
left_child=-1 2 -2 5 9 6 -3 -6 -9 -5 -7
right_child=1 3 -4 4 7 10 -8 8 -10 -11 -12
leaf_value=-0.0017025853174952015 -0.00031894179589401643 -0.00561798867614319 0.0032247963016507801 0.00025562612184633815 0.0048247674525634431 -0.00077554234158014887 -0.00036871857388177888 -0.0015573924974254941 0.002332951207386537 -0.0028550478536635638 0.0014531900287803375
leaf_weight=24 26 24 27 30 23 32 20 23 36 30 33
leaf_count=24 26 24 27 30 23 32 20 23 36 30 33
internal_value=-7.24047e-12 0.000134415 0.00148636 -0.000151056 0.000533903 -0.00100057 -0.00323196 0.00194068 0.000816377 -0.00129971 0.000355968
internal_weight=328 304 53 251 142 109 44 82 59 60 65
internal_count=328 304 53 251 142 109 44 82 59 60 65
cat_boundaries=0 1
cat_threshold=8913921
is_linear=0
shrinkage=0.05


Tree=65
num_leaves=9
num_cat=1
split_feature=15 15 3 10 11 22 22 0
split_gain=0.0296564 0.0501926 0.0976533 0.0624805 0.112642 0.0981211 0.0868867 0.0640062
threshold=-12.392857142857142 -11.407142857142853 1.0000000180025095e-35 0 4.6550000000000002 6.4500000000000011 9.7500000000000018 2519.0000000000005
decision_type=8 8 2 9 8 8 10 10
left_child=-1 -2 3 4 -3 -5 -6 -7
right_child=1 2 -4 5 6 7 -8 -9
leaf_value=0.0017731338678541677 -0.0025490520324092363 -0.0036547921604805573 0.0024021462904975604 -0.0019790389575064181 0.0011124657429853811 -0.0010254658051193335 -0.00248977393986514 0.0018216110147655055
leaf_weight=22 20 34 38 33 47 26 26 82
leaf_count=22 20 34 38 33 47 26 26 82
internal_value=1.27773e-11 -0.00012748 4.18605e-05 -0.000319796 -0.00116847 0.000380144 -0.000170524 0.0011362
internal_weight=328 306 286 248 107 141 73 108
internal_count=328 306 286 248 107 141 73 108
cat_boundaries=0 1
cat_threshold=9438272
is_linear=0
shrinkage=0.05


Tree=66
num_leaves=10
num_cat=0
split_feature=15 11 16 16 11 22 21 9 0
split_gain=0.0267649 0.0461821 0.0740387 0.247251 0.123724 0.0881605 0.106298 0.0764499 0.0652718
threshold=-12.392857142857142 26.250000000000004 7.7214285714285724 7.9500000000000002 7.3850000000000007 7.0500000000000007 -9.8499999999999996 4.7000000000000002 2912.5000000000005
decision_type=8 10 8 8 10 10 10 10 10
left_child=-1 2 4 -4 -2 -6 -7 8 -5
right_child=1 -3 3 7 5 6 -8 -9 -10
leaf_value=0.0016844771349993114 -0.0038261107662974888 0.0021417592962582905 0.005347215981667184 3.0789517717186727e-05 -0.0024286781347567037 0.0033505562809295953 -0.00089344588987943195 0.0022045576653908941 -0.002437646817253513
leaf_weight=22 33 21 22 71 31 25 36 24 43
leaf_count=22 33 21 22 71 31 25 36 24 43
internal_value=-6.41527e-12 -0.000121106 -0.000287844 0.000424471 -0.00119961 -0.000257491 0.000845899 -0.000360314 -0.000900287
internal_weight=328 306 285 160 125 92 61 138 114
internal_count=328 306 285 160 125 92 61 138 114
is_linear=0
shrinkage=0.05


Tree=67
num_leaves=9
num_cat=0
split_feature=9 14 20 20 18 8 17 8
split_gain=0.0273367 0.0472382 0.130185 0.0927797 0.0784198 0.110472 0.0905576 0.0226229
threshold=5.3500000000000005 -4.2999999999999998 -3.2499999999999996 -2.0499999999999994 13.950000000000001 1403.5000000000002 1.5000000000000002 2111.0000000000005
decision_type=10 8 8 8 8 8 10 8
left_child=1 7 -3 -4 6 -6 -5 -1
right_child=-2 2 3 4 5 -7 -8 -9
leaf_value=0.002663897642923985 0.0017452829162634556 -0.0038753407308831814 0.0030064326225091587 -0.0032744555128053489 0.0040510771108702532 -0.00021189727592916993 -0.00031884136775811849 0.00031420298009401281
leaf_weight=20 21 24 23 34 21 55 109 21
leaf_count=20 21 24 23 34 21 55 109 21
internal_value=6.3709e-12 -0.000119384 -0.000362884 -1.45412e-05 -0.000331812 0.00096603 -0.00102157 0.0014604
internal_weight=328 307 266 242 219 76 143 41
internal_count=328 307 266 242 219 76 143 41
is_linear=0
shrinkage=0.05


Tree=68
num_leaves=12
num_cat=0
split_feature=15 1 0 14 21 20 20 15 0 21 16
split_gain=0.0274903 0.137962 0.239898 0.0972669 0.0716185 0.12845 0.0740772 0.0597798 0.0995499 0.0922896 0.0521017
threshold=-6.6999999999999984 1.0000000180025095e-35 3079.5000000000005 5.3500000000000005 -10.35 -2.0499999999999994 0.45000000000000007 -11.485714285714282 3536.0000000000005 -14.499999999999998 8.4785714285714295
decision_type=10 2 10 10 10 10 10 10 10 10 10
left_child=4 2 10 -3 7 -6 -7 9 -9 -1 -2
right_child=1 3 -4 -5 5 6 -8 8 -10 -11 -12
leaf_value=-0.00088437791242827908 0.0017194805223317373 -0.00055224772742284197 -0.006633327605668456 0.003836037039392344 0.00439039864935554 -0.0019687953191654135 0.0016173757449804626 9.2366797793092158e-05 -0.0042497684946283696 0.0031284972357199245 -0.0014481038368745324
leaf_weight=38 21 28 20 23 26 24 36 33 22 23 34
leaf_count=38 21 28 20 23 26 24 36 33 22 23 34
internal_value=3.58918e-12 -0.00057958 -0.00194391 0.00142678 0.00036152 0.00145494 0.000182907 -0.000449118 -0.00164449 0.000628673 -0.000238663
internal_weight=328 126 75 51 202 86 60 116 55 61 55
internal_count=328 126 75 51 202 86 60 116 55 61 55
is_linear=0
shrinkage=0.05


Tree=69
num_leaves=10
num_cat=0
split_feature=8 22 18 11 15 15 3 25 18
split_gain=0.0282859 0.105454 0.135766 0.0758097 0.0749934 0.0926292 0.0781812 0.0782162 0.0653754
threshold=735.00000000000011 6.6500000000000012 12.050000000000002 1.925 -12.607142857142854 -11.407142857142853 1.0000000180025095e-35 3.5000000000000004 12.350000000000003
decision_type=10 10 8 8 10 10 2 2 10
left_child=1 -1 -3 8 -5 -6 7 -7 -2
right_child=3 2 -4 4 5 6 -8 -9 -10
leaf_value=-0.0014909797825786318 -0.0042699835263192657 0.0053114609005639243 -0.0001935237543875701 0.0026397396470061864 -0.0032739001686092127 0.001374308927398589 0.0024891305047397816 -0.0011740512872155716 -0.00022722993977367879
leaf_weight=29 20 21 24 26 22 45 30 91 20
leaf_count=29 20 21 24 26 22 45 30 91 20
internal_value=8.05236e-12 0.000860239 0.00237547 -0.000250621 0.000122834 -0.000225248 0.00017879 -0.000330844 -0.00224861
internal_weight=328 74 45 254 214 188 166 136 40
internal_count=328 74 45 254 214 188 166 136 40
is_linear=0
shrinkage=0.05


Tree=70
num_leaves=12
num_cat=1
split_feature=10 18 14 22 14 21 22 25 9 21 1
split_gain=0.0256757 0.0687526 0.0528704 0.0964206 0.0466155 0.0691334 0.0654564 0.172322 0.0956702 0.0786109 0.060146
threshold=0 10.350000000000003 -1.5357142857142854 9.7500000000000018 13.342857142857143 -3.1499999999999999 6.9500000000000011 3.5000000000000004 2.7000000000000006 -7.6499999999999995 1.0000000180025095e-35
decision_type=9 10 10 10 8 10 10 2 10 10 2
left_child=1 -1 -3 -4 5 6 9 -8 -9 10 -2
right_child=4 2 3 -5 -6 -7 7 8 -10 -11 -12
leaf_value=-0.0024179619064347612 0.0023659259789501844 -0.0012913160330544297 0.0036101293466661286 -0.00053431001013248337 0.0023945848928997298 -0.0022378365060797445 0.0053844839423185312 0.0021171912234556793 -0.0021322101641159793 -0.0031408473339286595 -0.0012121774799500904
leaf_weight=36 23 39 23 36 25 27 21 27 26 21 24
leaf_count=36 23 39 23 36 25 27 21 27 26 21 24
internal_value=8.7977e-12 -0.000511182 0.000137107 0.00108132 0.000360834 8.13344e-05 0.000522304 0.00155136 3.25792e-05 -0.000597555 0.000538809
internal_weight=328 134 98 59 194 169 142 74 53 68 47
internal_count=328 134 98 59 194 169 142 74 53 68 47
cat_boundaries=0 1
cat_threshold=1082131456
is_linear=0
shrinkage=0.05


Tree=71
num_leaves=11
num_cat=1
split_feature=9 10 18 20 20 21 20 16 22 18
split_gain=0.0263551 0.0415639 0.132103 0.0669475 0.125844 0.1375 0.0867866 0.0653884 0.0624459 0.0581845
threshold=5.3500000000000005 0 10.350000000000003 -3.2499999999999996 1.3500000000000003 -6.2499999999999991 3.5500000000000003 7.0785714285714283 9.4500000000000011 10.350000000000003
decision_type=10 9 8 8 10 8 10 10 10 10
left_child=1 2 -1 -3 5 -5 -6 -4 -9 -8
right_child=-2 3 7 4 6 -7 9 8 -10 -11
leaf_value=-0.0044760984368622308 0.0017136613971420697 -0.0015748852307701277 -0.0016946874493255449 0.0044243564486111464 -0.0031463638519529597 -0.00019331603460679097 -0.0015890410106459804 0.0030534506182778968 -0.00031039163885587779 0.0015851105990198752
leaf_weight=21 21 36 39 38 22 28 22 22 37 42
leaf_count=21 21 36 39 38 22 28 22 22 37 42
internal_value=1.70364e-12 -0.000117221 -0.000809298 0.000345518 0.000823082 0.00246534 -0.000437259 -0.000106137 0.000943922 0.000493996
internal_weight=328 307 119 188 152 66 86 98 59 64
internal_count=328 307 119 188 152 66 86 98 59 64
cat_boundaries=0 1
cat_threshold=1082131456
is_linear=0
shrinkage=0.05


Tree=72
num_leaves=9
num_cat=0
split_feature=0 0 6 15 15 18 21 16
split_gain=0.0282064 0.0457517 0.0691739 0.0744109 0.144113 0.125429 0.0972464 0.0601997
threshold=2519.0000000000005 2749.0000000000005 1.0000000180025095e-35 -6.6999999999999984 -7.928571428571427 10.350000000000003 -0.94999999999999984 7.0357142857142874
decision_type=8 8 2 10 10 10 10 8
left_child=-1 -2 3 4 7 -5 -7 -3
right_child=1 2 -4 5 -6 6 -8 -9
leaf_value=-0.0016502049998962322 0.0020560848493395107 0.0013553811085059127 -0.0026300553668988872 -0.0045485421456396584 0.0038207785762478449 -0.0016302929530220647 0.0028416478470899165 -0.00070825829671355349
leaf_weight=24 28 57 24 20 31 31 20 93
leaf_count=24 28 57 24 20 31 31 20 93
internal_value=-9.39663e-12 0.000130279 -6.50922e-05 0.00017919 0.000717308 -0.00119263 0.000123409 7.59247e-05
internal_weight=328 304 276 252 181 71 51 150
internal_count=328 304 276 252 181 71 51 150
is_linear=0
shrinkage=0.05


Tree=73
num_leaves=9
num_cat=0
split_feature=0 0 6 15 15 21 0 4
split_gain=0.0254563 0.0412909 0.0624294 0.0671558 0.130062 0.115836 0.107346 0.0747697
threshold=2519.0000000000005 2749.0000000000005 1.0000000180025095e-35 -6.6999999999999984 -7.928571428571427 0.65000000000000002 3145.5000000000005 1.0000000180025095e-35
decision_type=8 8 2 10 10 10 10 2
left_child=-1 -2 3 4 7 6 -5 -3
right_child=1 2 -4 5 -6 -7 -8 -9
leaf_value=-0.0015676947184450304 0.0019532807620375285 -0.00048602955357637259 -0.0024985526048112664 -0.0004703831818789758 0.0036297396621516632 0.0019832853915258534 -0.0051643331535160542 0.0023047603239926199
leaf_weight=24 28 120 24 29 31 21 21 30
leaf_count=24 28 120 24 29 31 21 21 30
internal_value=9.51198e-12 0.000123765 -6.18376e-05 0.00017023 0.000681443 -0.001133 -0.00244184 7.21284e-05
internal_weight=328 304 276 252 181 71 50 150
internal_count=328 304 276 252 181 71 50 150
is_linear=0
shrinkage=0.05


Tree=74
num_leaves=12
num_cat=0
split_feature=9 8 11 17 22 9 21 11 15 9 0
split_gain=0.025025 0.0434228 0.15451 0.108728 0.0884914 0.0762197 0.073913 0.0583747 0.0992031 0.0629962 0.0571645
threshold=5.3500000000000005 1475.0000000000002 3.1850000000000009 2.5000000000000004 4.8500000000000005 5.1500000000000012 -7.0499999999999989 3.8150000000000004 -5.5071428571428553 3.7000000000000002 3610.5000000000005
decision_type=10 10 8 8 10 10 10 8 8 8 10
left_child=1 3 -3 6 -4 10 -1 -5 -9 -10 -6
right_child=-2 2 4 7 5 -7 -8 8 9 -11 -12
leaf_value=0.0046053246325093574 0.0016698580856124561 -0.0038761591020550941 0.0031277621089247989 0.0013031321817244454 -0.00070644015365320704 -0.003033584761230842 0.00055153195381812427 -0.0032671062856024949 0.0022232999012846014 -0.00130828331041682 0.002392387619792399
leaf_weight=22 21 31 20 37 46 23 23 32 23 28 22
leaf_count=22 21 31 20 37 46 23 23 32 23 28 22
internal_value=-2.33319e-11 -0.000114225 -0.000755224 0.000437423 0.000116388 -0.000545452 0.00253339 -0.000348563 -0.00108486 0.000284391 0.000296122
internal_weight=328 307 142 165 111 91 45 120 83 51 68
internal_count=328 307 142 165 111 91 45 120 83 51 68
is_linear=0
shrinkage=0.05


Tree=75
num_leaves=12
num_cat=0
split_feature=16 16 18 9 22 18 16 20 16 23 15
split_gain=0.0238282 0.0439731 0.0549438 0.141088 0.144847 0.0922655 0.0746982 0.0630529 0.0665163 0.0507125 0.021299
threshold=5.5571428571428578 6.6857142857142877 10.350000000000003 5.3500000000000005 7.7500000000000009 10.950000000000001 7.8071428571428578 3.5500000000000003 9.328571428571431 0.17500000000000002 -7.928571428571427
decision_type=8 8 8 8 10 8 10 8 8 10 10
left_child=-1 9 3 4 6 -4 -3 10 -9 -2 -7
right_child=1 2 5 -5 -6 7 -8 8 -10 -11 -12
leaf_value=-0.001452432457321825 -0.0001114443748850714 -0.0029455299223107951 0.002656402726036807 0.0023740737034875729 -0.0056877174370345623 -0.0027028664007641215 0.0010305420754270422 0.002394858887948265 -0.00053382895272621452 0.0032834871852008458 -0.0006493824085087649
leaf_weight=26 22 21 36 22 21 23 27 33 47 22 28
leaf_count=26 22 21 36 22 21 23 27 33 47 22 28
internal_value=2.10648e-11 0.000125044 -0.000124115 -0.00111257 -0.00222425 0.000414504 -0.000708989 -0.00020159 0.000674255 0.00158602 -0.00157546
internal_weight=328 302 258 91 69 167 48 131 80 44 51
internal_count=328 302 258 91 69 167 48 131 80 44 51
is_linear=0
shrinkage=0.05


Tree=76
num_leaves=9
num_cat=0
split_feature=0 9 18 8 8 11 9 21
split_gain=0.0253253 0.040211 0.076784 0.0550586 0.0942946 0.0937874 0.103551 0.0955824
threshold=2519.0000000000005 2.7000000000000006 12.15 1164.0000000000002 1475.0000000000002 6.9650000000000007 5.2500000000000009 -12.549999999999999
decision_type=8 8 10 8 8 8 8 8
left_child=-1 2 -2 -3 -5 6 -6 -7
right_child=1 3 -4 4 5 7 -8 -9
leaf_value=-0.0015636566492806499 -0.00022836730725342229 -0.0023192611724460639 0.0036339772865176204 0.0026715374566734802 -0.0037431713063543776 -0.0025583245525402682 0.00013116738692458188 0.00113985149610716
leaf_weight=24 31 26 22 31 34 21 35 104
leaf_count=24 31 26 22 31 34 21 35 104
internal_value=-3.08785e-12 0.000123447 0.00137487 -0.000140798 0.000110935 -0.000298233 -0.00177793 0.000518558
internal_weight=328 304 53 251 225 194 69 125
internal_count=328 304 53 251 225 194 69 125
is_linear=0
shrinkage=0.05


Tree=77
num_leaves=11
num_cat=1
split_feature=10 21 25 17 16 20 20 11 11 20
split_gain=0.0223555 0.0836014 0.0457657 0.212838 0.049993 0.0448941 0.0815833 0.0397792 0.0524801 0.0501692
threshold=0 -10.149999999999997 2.5000000000000004 3.5000000000000004 10.428571428571429 6.5500000000000007 1.5500000000000003 16.170000000000005 3.1850000000000009 -1.2499999999999998
decision_type=9 8 2 8 8 8 10 10 10 10
left_child=1 -1 3 -2 7 6 -3 8 -4 -10
right_child=2 5 4 -5 -6 -7 -8 -9 9 -11
leaf_value=0.0020551912223353334 0.0044779799878597263 -0.0020598524862802344 -0.0015132125501671958 -0.001817413914948702 0.0021700035126525023 -0.0032295115585641368 0.0017130869512861271 -0.001908900812268257 0.002414802492070333 -0.00025205009513431126
leaf_weight=23 29 38 37 25 21 23 23 35 29 45
leaf_count=23 29 38 37 25 21 23 23 35 29 45
internal_value=2.56433e-11 -0.000563101 0.000285207 0.00156345 -0.000111038 -0.00134705 -0.000637269 -0.000439133 2.43077e-05 0.000793068
internal_weight=328 107 221 54 167 84 61 146 111 74
internal_count=328 107 221 54 167 84 61 146 111 74
cat_boundaries=0 1
cat_threshold=8389633
is_linear=0
shrinkage=0.05


Tree=78
num_leaves=11
num_cat=0
split_feature=16 8 23 4 11 8 18 8 8 0
split_gain=0.0222059 0.0416758 0.0540296 0.0965616 0.0989857 0.119433 0.0744333 0.0584826 0.0578363 0.0659746
threshold=5.5571428571428578 880.00000000000011 0.17500000000000002 1.0000000180025095e-35 4.7950000000000008 1115.0000000000002 12.15 1665.0000000000002 1715.0000000000002 3733.5000000000005
decision_type=8 8 8 2 10 10 10 8 8 10
left_child=-1 -2 3 4 5 -3 8 -6 -4 -10
right_child=1 2 6 -5 7 -7 -8 -9 9 -11
leaf_value=-0.0014021179370152263 0.0022692933980752493 -0.00089863024465739729 0.0017594666142637533 0.0016323855714706172 -0.0018230218869575766 -0.0060825005732476718 0.0032280691627723478 0.001029164789289963 -0.0018324169957648136 0.0014594536315163842
leaf_weight=26 21 25 36 35 32 20 24 41 45 23
leaf_count=26 21 25 36 35 32 20 24 41 45 23
internal_value=1.56433e-11 0.000120712 -3.9858e-05 -0.000674008 -0.00135811 -0.00320257 0.000718149 -0.000221109 0.000138937 -0.00071899
internal_weight=328 302 281 153 118 45 128 73 104 68
internal_count=328 302 281 153 118 45 128 73 104 68
is_linear=0
shrinkage=0.05


Tree=79
num_leaves=11
num_cat=1
split_feature=15 8 15 10 25 11 23 16 4 11
split_gain=0.0223453 0.0547378 0.0540339 0.0526841 0.100811 0.0698274 0.0473555 0.0705832 0.0329181 0.05457
threshold=-12.607142857142854 2325.0000000000005 -11.407142857142853 0 2.5000000000000004 7.2100000000000017 1.3650000000000002 6.8357142857142872 1.0000000180025095e-35 9.8350000000000026
decision_type=10 8 10 9 2 10 10 10 2 10
left_child=1 -1 -2 5 -5 -4 7 -7 9 -6
right_child=2 -3 3 4 8 6 -8 -9 -10 -11
leaf_value=0.0028940943793194104 -0.0024324363019938271 -0.00063665017647587742 -0.0025319989272154487 0.0029720387602638868 0.0012976564005172501 -0.00075160894872775929 -0.0018093567385914782 0.0032702472596429291 -0.0016193617771093089 -0.0012095826951896444
leaf_weight=21 24 23 39 36 60 24 21 20 26 34
leaf_count=21 24 23 39 36 60 24 21 20 26 34
internal_value=-3.14108e-12 0.00104848 -0.00016244 4.70979e-05 0.00061219 -0.000784019 0.000144151 0.00107651 -4.47486e-05 0.000390783
internal_weight=328 44 284 260 156 104 65 44 120 94
internal_count=328 44 284 260 156 104 65 44 120 94
cat_boundaries=0 1
cat_threshold=9438209
is_linear=0
shrinkage=0.05


Tree=80
num_leaves=9
num_cat=0
split_feature=0 0 6 15 21 15 0 4
split_gain=0.0220837 0.0374128 0.0587344 0.0620674 0.117699 0.116931 0.0780887 0.0609789
threshold=2519.0000000000005 2756.0000000000005 1.0000000180025095e-35 -6.6999999999999984 0.65000000000000002 -7.928571428571427 3145.5000000000005 1.0000000180025095e-35
decision_type=8 8 2 10 10 10 10 2
left_child=-1 -2 3 5 6 7 -5 -3
right_child=1 2 -4 4 -6 -7 -8 -9
leaf_value=-0.0014601586357457564 0.0017613296682435658 -0.0004418933721414457 -0.0024339068200788464 -0.0006960441152302709 0.0020907377428375186 0.003435413772991348 -0.0047613496892154224 0.0020784168892229601
leaf_weight=24 31 120 24 27 20 31 21 30
leaf_count=24 31 120 24 27 20 31 21 30
internal_value=-6.00544e-12 0.000115276 -7.16389e-05 0.00015605 -0.00113186 0.000639907 -0.00247462 6.21687e-05
internal_weight=328 304 273 249 68 181 48 150
internal_count=328 304 273 249 68 181 48 150
is_linear=0
shrinkage=0.05


Tree=81
num_leaves=9
num_cat=0
split_feature=9 14 20 20 0 11 20 8
split_gain=0.0220251 0.0407359 0.103803 0.0642826 0.055935 0.123867 0.0846948 0.0182995
threshold=5.3500000000000005 -4.2999999999999998 -3.2499999999999996 -2.0499999999999994 3145.5000000000005 4.410000000000001 8.8500000000000032 2111.0000000000005
decision_type=10 8 8 8 10 10 10 8
left_child=1 7 -3 -4 6 -6 -5 -1
right_child=-2 2 3 4 5 -7 -8 -9
leaf_value=0.002442279232782312 0.0015665753123660882 -0.0034697169903665781 0.0024923617161972372 0.00091552999490107005 0.0015507653588429093 -0.0026137274755328372 -0.0023575232211442199 0.00032899941628177962
leaf_weight=20 21 24 23 112 26 57 24 21
leaf_count=20 21 24 23 112 26 57 24 21
internal_value=3.0701e-12 -0.00010716 -0.000333281 -2.22291e-05 -0.000286319 -0.00130919 0.000337932 0.00135987
internal_weight=328 307 266 242 219 83 136 41
internal_count=328 307 266 242 219 83 136 41
is_linear=0
shrinkage=0.05


Tree=82
num_leaves=10
num_cat=0
split_feature=11 15 16 16 11 9 16 21 9
split_gain=0.0218485 0.0334965 0.0505241 0.176069 0.0850794 0.0736153 0.0584096 0.054103 0.0508439
threshold=26.250000000000004 -12.207142857142856 7.7214285714285724 7.9500000000000002 10.710000000000003 4.7000000000000002 6.9071428571428575 -9.8499999999999996 2.2500000000000004
decision_type=10 8 8 8 10 10 10 10 10
left_child=1 -1 4 -4 6 8 -3 -6 -5
right_child=-2 2 3 5 7 -7 -8 -9 -10
leaf_value=0.0017644226127727467 0.0014523625748211089 -0.0010145552528019134 0.0045926175457203676 3.285757856749332e-05 0.0014369011643187454 0.0021951998935643741 -0.0044736275206441467 -0.0012680137813348617 -0.0021122824070923169
leaf_weight=22 24 26 21 67 36 24 23 38 47
leaf_count=22 24 26 21 67 36 24 23 38 47
internal_value=-4.60321e-12 -0.00011466 -0.000261255 0.000327383 -0.00102218 -0.000321674 -0.0026382 4.78908e-05 -0.000851542
internal_weight=328 304 282 159 123 138 49 74 114
internal_count=328 304 282 159 123 138 49 74 114
is_linear=0
shrinkage=0.05


Tree=83
num_leaves=11
num_cat=1
split_feature=9 10 20 14 20 20 21 20 23 8
split_gain=0.020516 0.0346215 0.0732192 0.0722616 0.0506403 0.0977515 0.102274 0.0725366 0.0403171 0.0393156
threshold=5.3500000000000005 0 6.5500000000000007 2.0714285714285721 -3.2499999999999996 1.3500000000000003 -6.2499999999999991 3.5500000000000003 0.38500000000000006 907.50000000000011
decision_type=10 9 8 10 8 10 8 10 10 10
left_child=1 2 3 8 -3 6 -6 -7 -1 -9
right_child=-2 4 -4 -5 5 7 -8 9 -10 -11
leaf_value=-0.0020451872861264524 0.0015119565473425958 -0.0013505995454680588 -0.0032019456634297971 0.0025092145585222173 0.0038718996460757856 -0.0028525501680137081 -0.00011057908335975039 0.002130141323837249 0.0002889642567449325 -0.00045263472555500528
leaf_weight=37 21 36 25 20 38 22 28 23 37 41
leaf_count=37 21 36 25 20 38 22 28 23 37 41
internal_value=-1.04392e-11 -0.000103424 -0.000735229 -0.000157404 0.000318654 0.000734968 0.00218236 -0.000375824 -0.000878112 0.00047555
internal_weight=328 307 119 94 188 152 66 86 74 64
internal_count=328 307 119 94 188 152 66 86 74 64
cat_boundaries=0 1
cat_threshold=1082131456
is_linear=0
shrinkage=0.05


Tree=84
num_leaves=11
num_cat=0
split_feature=9 16 20 8 8 11 14 21 16 21
split_gain=0.0202742 0.101475 0.123006 0.0575489 0.0822741 0.0961134 0.0954521 0.0721982 0.156643 0.0545176
threshold=2.7000000000000006 7.2928571428571436 3.5500000000000003 1164.0000000000002 1475.0000000000002 6.9650000000000007 -1.5357142857142854 -1.7 7.5714285714285721 -8.6499999999999968
decision_type=8 10 10 8 8 8 10 10 10 8
left_child=1 -1 -3 -2 -5 7 9 8 -6 -7
right_child=3 2 -4 4 5 6 -8 -9 -10 -11
leaf_value=0.0037609400619840016 -0.0023005007143967367 -0.0033481348771601917 0.0017541184460882237 0.002459322340455988 -0.0036891711223870517 -0.0012982248291206946 0.0027069718066842245 -0.0043054846755694598 0.0017115766602038439 0.0012399769662057652
leaf_weight=20 29 21 27 31 25 56 36 20 29 34
leaf_count=20 29 21 27 31 25 56 36 20 29 34
internal_value=5.29282e-12 0.000768664 -0.000478117 -0.000201035 6.2534e-05 -0.000308968 0.000531029 -0.00173923 -0.00078877 -0.000339349
internal_weight=328 68 48 260 231 200 126 74 54 90
